-0.08532676023232791 0.2163857830238773 -0.1214752282904943 0.1042904118620978 0.1093249499438551 0.1235685675414728 -0.06367477548325624 0.1500830510918087 0.2247088965117849 -0.1424015838996458 0.3459468842020317 0.1363370561382189 0.6613531048335778 0.09858342510919881 0.1914276266388456 0.1969852541728798 0.4634852206260854 0.01070223667061844 -0.137009142879045 -0.05069030774581783 0.1063949628170197 0.2649214724174747 0.03483277559838165 0.03802699757464856 0.1718080373140798 0.08475119251154868 -0.2351157641091633 -0.2032182248547 -0.04487504294452598 -0.5916545618342485 0.04490263513516765 0.1101842496176852 0.09599382768381604 -0.4667812520774373 -0.3514342737312133 -0.1147672853768264 -0.05536157869652109 0.6609722793254769 0.1711591175286584 0.008502327073506699 -0.2334570245079249 0.2151776528607222 0.3619620522344029 -0.2333472638146534 0.2228558374768156 0.2864381422411091 -0.1002547283165633 -0.005088177144923782 -0.004985170592181003 0.2536107423851222 -0.06117633543389868 -0.04828881259826462 0.08724805231209001 -0.6943266028890144 0.4003624298423842 -0.001913760380221687 -0.01251138307437573 0.1978055256392269 -0.3481406414386103 -0.1839835911202294 0.5025356688561301 -0.131003364883216 0.1376486371422506 -0.06861925775093589 -0.1331491124724108 -0.3282042877556331 0.2879419800757285 -0.02112985040012129 0.166540402336725 -0.019618520947999 -0.3320194602813618 -0.2621466442976338 0.004825808134896934 -0.2845501448452296 -0.07610714691120753 -0.1842400016521959 0.1478662661320883 -0.2906316823999942 0.3556798116307967 -0.05829335010410958 0.09570991830072172 -0.2127232641209503 0.04490662048332468 0.1836641525136709 -0.1134271892072317 0.1009801378858179 -0.04516577147326944 -0.003369524683446515 0.07827824798922865 -0.5375986520035519 0.2930647020242746 -0.005922101850339488 0.02570004574629348 0.09417305822733703 0.1390913345288619 0.4283579009643673 -0.02550489772843043 0.01299457621849022 0.2400888915155713 0.01792387951952466 0.1464616162177508 -0.03021757593494142 0.1340391522167877 0.1501436096073415 0.1568166205767359 -0.1524469482369054 0.1163133528433372 0.06935464618822883 -0.2928307016046637 0.1640549255075788 -0.06626296079163028 -0.06953698651844543 0.2800872651668834 0.0208297410840783 -0.01466952988774885 0.6710236977045355 0.06196471333124116 0.1640725743207575 -0.08809013686200037 0.2863348083877008 0.04623363831544974 -0.03516181291426141 0.1695589854641938 0.01794447040190338 -0.02593173148909415 -0.2526753296459441 -0.1786379174224441 -0.06557187076504949 0.4277409350643342 0.07140729092885519 0.1124760670196051 0.2376446492439128 0.06653368362930737 -0.3349166588845527 -0.06208326825468759 0.0399056315192383 -0.2930032168456083 -0.09838217368329943 0.04701290567706552 -0.1212284281241397 -0.1100922964848341 -0.001622171364648266 -0.6524450813152703 0.03119207789192361 0.1748104207650021 -0.05511014234269344 -0.04610289183822967 -0.2034007062110913 -0.1669734879634681 0.2443603841874573 0.05385489633296937 -0.05052747050845864 0.009921012460625092 0.09914931489935377 -0.01495565723184748 0.003492339534259359 0.02892183429865371 -0.1631698364556323 0.2432394656893366 0.1398527773094259 0.1699489824570155 -0.2602369830669722 0.03499288464614383 -0.020609134218933 -0.02700975198826782 -0.1454187516568655 -0.2084885617537198 -0.741843208450243 0.3651306337492514 -0.2624715861316332 -0.03175616670892795 0.3381401149995897 0.2573325048462671 -0.06685021347446059 0.08697684214735305 -0.2847711932959465 0.03687941583587486 -0.05423252968483178 0.1592174025729908 0.03588322710904052 0.03902975267767533 -0.03517605323537529 -0.02629148315219328 0.08608568113077275 0.3691600083753382 -0.3712478824132679 0.09840457634540067 0.02302921756113385 -0.0790611666031617 0.01476167843139967 -0.080478026555843 0.1979501753010471 0.02811044388518917 -0.02093891355521699 0.06233624779798282 0.1816693976094967 0.0365352066978114 -0.1593932769295998 0.04042859736964246 -0.004810899714863869 0.001427284384514797 0.3061057416560622 0.06488483928661946 -0.112557707549252 0.4533265256503601 0.03946369570960767 -0.4251767445558588 -0.1621457258771946 0.07016403297163533 0.1380864688317265 -0.07188497933672623 0.03859827503456106 0.09851655768963923 -0.307806625505188 -0.02169475235672589 0.03862983602669669 0.0948062451769572 -0.2308584503469964 0.2057578093910132 0.150735902846909 -0.04009013333691946 -0.1155227066321321 -0.01420106864450407 0.01103991375842619 -0.0143937774316533 0.01797123052492769 0.1943924582950649 -0.04900462604699921 0.186126808827193 -0.2095940762314128 -0.1596831459288664 0.009388123252978331 0.07349488191646987 0.03898703184265079 0.1127313303772213 -0.06083811861623094 -0.01702088777158656 0.02123763044001653 0.003005004604796494 0.08828338794341603 -0.04712397525702803 -0.1344061910365271 0.02980830996843586 0.1961738515401998 0.7437800862019674 -0.04260314338641083 0.2285727553109438 0.2864708731015448 -0.504602658511302 0.1599726393724744 -0.2624421003641509
 -0.04961562017363228 -0.2467616466411304 0.2310455586894615 0.1003553872796299 0.01819917070751192 -0.06685464979216638 0.0708725513633882 -0.0167924127246598 -0.5409537492011859 -0.1124308081476071 0.1612221465844775 -0.2290056652072932 -0.06326208035900331 0.4066870450028665 0.2166684750898963 -0.03503058526884755 -0.2582235602451472 0.09804207170827298 -0.1252761090755853 -0.1496240763010375 -0.03635934242961349 0.05099737598240878 -0.1080844469049405 -0.02845035328689741 -0.08460590334804481 -0.0004959317972577263 -0.1056299358720156 -0.1398847083517923 -0.08344198788466385 0.02069299534821213 -0.2618357531917294 -0.1629370419445569 -0.05676386756625226 0.5425077196968714 -0.3803731129916951 0.02288346308068573 0.2219279322997079 0.2305487925386215 0.1583342421679716 -0.06403946360448433 -0.007115840123005932 -0.2412969092543963 0.1821646254833402 0.06750651570039302 0.3338050717171664 -0.009959289438362861 0.003252482621843304 -0.0254436202390458 -0.1416105069278488 0.06825298456688456 0.09414883030485817 0.03353764583787535 0.07982878665385156 0.150356246782785 -0.02684809588546788 -0.09661738219473023 -0.06808186668248947 0.1199920638500241 0.02116164591372395 0.03934453959706317 -0.1448017874937267 -0.1222426908856674 0.289963146397487 -0.103685044509348 -0.09530615502643809 -0.09095702858280208 -0.04238802488830679 -0.08966068167757663 0.05554650478623048 0.4168239685355914 0.09787926911257645 0.23508147918581 -0.0220200745176168 0.03745943129048541 -0.302649299249416 0.09977089993948272 -0.1595237078533423 -0.2277461910107606 0.05591309847463274 -0.0771796270188168 0.1976434380378729 -0.1905527001871596 0.3872594857955219 -0.02078921652666042 0.01521906084391131 -0.1636629806135252 0.1767239733651205 0.1414546501117114 0.007126267064983707 0.008857590505590797 0.1463837555843173 0.0001251844390396378 0.02612878821400189 -0.04232147981236057 -0.2250901005444108 0.06735911510280566 -0.2920705950906886 -0.07830941121745984 0.1677587207480912 0.006172695498999932 -0.1613211177037034 -0.07412451597935495 0.1835851678155221 0.2005757186765981 -0.1742609633587056 0.01720687141327798 -0.01733680550840916 0.07580662445152185 -0.1388901498099302 -0.07917351007320134 -0.3236203194271415 -0.02076747496549726 -0.4344864301691106 0.1023498962764703 0.07356226985153663 0.4135222458982917 0.07698054220114234 0.2893312091326587 0.1382135222898761 0.06988716407257128 -0.05032666948079434 -0.06070087832807507 -0.09135216882909099 0.1219275217406246 -0.04908368893323622 -0.04922805433926768 -0.1017953233708771 -0.08905624083758551 -0.01712528551732235 0.06656354136115603 0.1815559471407576 -0.02895286661750016 -0.1569417531691263 0.0571618569014023 0.1351293251385784 0.0390064145237731 -0.01098085482089017 -0.03930848449568813 0.1520101197135896 0.04857092438196204 0.1351022390583008 0.004022054213563375 -0.351566538738656 -0.01411589859921054 -0.1458522525874376 0.03157931126767236 -0.5801950844688274 0.04494510054475075 0.007026267285223319 -0.1151703889222018 -0.1445499938855208 -0.01254713582577513 -0.09842278319474769 0.1661704018389477 0.0126024344048239 -0.04938570010947062 -0.003872858202906464 0.159602091275462 -0.1481540256572298 -0.2535727136509455 0.004139639261278057 -0.0194342112017297 0.05553230743558804 0.00626505907657438 0.2849614281835156 0.01621737395776346 0.1781383316518324 -0.04073896943239561 0.2391708524901914 0.07792194716244401 -0.00490408576106765 0.2671873240784968 0.3708098363035249 0.2285336462861793 -0.408969572179009 0.0951374569924798 -0.1447390164205153 -0.1561548051296487 -0.039780711736073 -0.07727944668174223 -0.03943387675523443 -0.1621194208002861 -0.2012243494885263 -0.04537496009596319 -0.1622890712356356 0.6022341510044358 0.06332581799375428 0.193329646555947 -0.1434519352837955 -0.08267858924070129 -0.1940820543856911 0.3700256136404594 -0.1479569566695715 -0.1186265012419458 -0.1315406740457279 -0.1121505647660023 0.02381135255288767 -0.1455888302073829 -0.3754753108652686 0.1627317134201841 0.03729313581816266 0.1204954862497791 -0.2933877077042333 0.004453151803476285 -0.1272390487298947 -0.08155716592677759 -0.0825891546220755 0.3850428058338023 -0.2461823597288412 0.1061550349327243 0.03778982747244105 0.09057672098236234 0.09490910724730039 0.3860073247371238 -0.09148430966251581 -0.1839600147369754 -0.07883542161778367 -0.1323515976489424 -0.11298169189971 -0.2949309414252781 -0.03394548839969144 -0.1912420739253715 -0.1423134403590581 -0.3458687619455553 -0.01003458764496653 -0.03395668307590136 -0.3303410278003862 0.1039372488273908 -0.09084305916436097 0.1606443697577486 0.08055877251194454 -0.009514169072728491 -0.2740393084125348 -0.03807640165240777 0.05012323926702179 -0.05173385830767638 -0.03604773939353105 -0.3386837876211201 0.1761119351640354 -0.09351056520623915 -0.164436272932722 -0.1842359597291678 0.02577407520047301 -0.3003323164453926 0.06336176807037366 -0.1992821400783401 0.175220473463574 -0.07671403216861193 -0.3755632346962028 -0.09761290697744597 0.2489516069490607
 -0.2525798972092049 -0.0510588358597932 -0.1661508276872471 0.1197763641061652 0.157872129612097 -0.1289059521646902 -0.3702561208071264 -0.189622163381862 -0.1174848484877988 -0.1641593637590165 -0.3420183383184345 -0.2815798257178365 -0.1381806499852596 -0.1896231748027645 -0.09586916269574496 0.1475083424294484 -0.2164331937782737 -0.1357196920116642 -0.3748498908242974 0.003047614744780692 0.110914587901305 -0.1068036335838449 -0.4508367194337236 0.03496318040038496 0.06994628799551382 -0.02097823893026911 -0.2578691275357295 -0.03039070018943055 0.07240194440863924 0.06056597848179567 -0.09456713354928899 -0.4672408474120027 -0.08562156475777551 -0.1927786180539275 -4.32744870949938e-005 -0.1723481756099774 -0.161122404349263 -0.1279143973269264 -0.08938586519820842 -0.3008592518570047 -0.09373983874041851 -0.139351665770445 -0.005026575396764748 -0.1431474026889485 -0.0303467286645299 0.007760832293801617 -0.4166424763634958 -0.2015575195467591 -0.2944353563899735 -0.04927745548578383 0.08743783295878305 -0.0570433407026985 -0.00519463173730598 -0.09131221137071649 -0.06730655178711151 -0.1020985566233427 -0.04549147742401043 -0.08461476241760899 -0.2193259721909588 -0.3019476881422616 -0.07934310326163185 -0.3373369553026255 -0.1262201925915963 -0.2698169539155733 -0.1266446196569452 0.06895969294494729 -0.3540851749615046 -0.1031675485615447 -0.2707854502308155 0.164425642333782 -0.3666758801805793 -0.03991456469999406 0.0194410006943019 -0.2180843917607037 -0.2665511197743846 -0.03722163068628424 -0.1566569506931647 -0.2894640301891636 0.000340170940913977 -0.1784113030562339 -0.1984839155102747 -0.2370080545426401 -0.07636509321663386 0.1302008655740404 -0.1964724484475004 0.09376142095158199 -0.2743251303611694 -0.2380222825452882 0.1020346677089362 -0.1245811899730978 -0.1015889694836675 -0.2209883404823393 -0.09352072210951383 0.2042515004999823 -0.03108275559405278 -0.1103431874628313 -0.07036736611314781 -0.1713503442634633 0.08492062755979632 0.01652544857975331 0.01163644267849428 -0.2667118190390274 -0.1294444255670055 -0.2048499940825708 -0.2772291607404903 0.07721885492676514 -0.1562203603243043 0.1470611122850557 -0.007785811881816955 -0.07727545383718511 -0.09350666682416807 -0.1224501556991883 -0.05098292837463671 0.05683893136770581 0.01714972869768717 -0.3729567626543381 0.03521059608843536 -0.1192992210630735 -0.01792583939739275 0.1934538678507 -0.2289527151887282 -0.2648702232575346 -0.2127053168029795 -0.05889923649864858 -0.2270629594989164 0.1839520057242718 -0.2544412402052849 -0.05648515607007518 -0.2813399380194055 0.100844092599681 -0.06221893423726108 -0.08455042350464816 -0.2297315600199001 -0.2060452223034297 -0.108266731020549 0.0625724895854186 -0.1747922264142776 -0.2612116664852563 -0.201182194433221 0.2004060556443646 -0.3668618609893524 -0.04033692490740753 -0.2320074003820757 0.01970616712440178 0.1136755877721142 -0.02689837403886305 -0.00593613374904936 -0.2144413987916226 -0.1055829061524688 0.01780251650373768 -0.03644417867509279 -0.2277532572226933 -0.1854553319505091 -0.2923097481018206 -0.1301682448885982 -0.2753687459112964 0.003798428616039797 0.08827483205617472 0.02801566379602769 -0.1718359712581261 0.3508904860194832 -0.04085575175388795 -0.02246466687362266 0.1397680589292961 -0.140674984484585 0.1121393155619014 -0.01264452555841834 -0.2386288885700454 -0.2405790683737198 -0.2996995684641821 -0.2003631835331366 -0.1285698751731261 -0.2401579266656736 0.1371196556716587 -0.03542074855974806 -0.01821617443004781 -0.1549820096468408 0.007076024228836556 0.0930544435031305 -0.03075064692574722 0.04303123680753304 -0.2919367537816372 0.01438717249050129 -0.1259572241468991 -0.2695516486981596 -0.05246731734549771 -0.2273788451489946 -0.1195994971407013 -0.3456814387616881 0.1288988840425307 -0.5358071896140142 -0.12609411287551 -0.06503786749400739 -0.332292239081903 0.0990867344213166 -0.0166966214738091 -0.02078765258339859 -0.189562445479313 0.1133623723619053 -0.317542771182437 -0.3477247151234883 0.02595842229664162 -0.07634346728001438 -0.3037110346450261 -0.01695078375324504 -0.04259680349367118 -0.01169485995795764 -0.2156001740302496 0.0603343991615153 0.02528423137746879 -0.2373657859450971 -0.07136608788638454 0.2392370758556616 0.07777212834054302 -0.07552635802254956 -0.08010989672583539 -0.07809799417096643 0.031750900923872 -0.2828873144518683 -0.1946820451788984 -0.2278979743801917 -0.1514681921677681 -0.4007952527477258 -0.05726625929094747 -0.1711673593346843 -0.1833446791717481 -0.4480378376219831 -0.4048613298151313 -0.1097466397886206 0.03568447972073293 -0.1117566089697059 -0.2010117393996413 -0.02424711817955068 0.03510663971478014 -0.2047212596594764 0.2129832530350921 0.02865670957322988 -0.2380054363385478 0.02221336799769099 -0.1007892892748354 -0.2267380935280659 -0.1174764592592644 -0.1393465947588841 -0.006966954584244543 -0.31189969993561 -0.128065387548488 0.002458593371560725 -0.1945513789443364 -0.150888002436203 0.1929874649586676 -0.2242097957704796
 -0.1024843307849767 0.263845208514467 0.2675543943437093 0.01565646023696298 -0.02074523813761148 -0.09148110768886962 -0.05166205488105027 0.2069685531324706 -0.1580285644352799 -0.2180212195985551 -0.1681889046692487 -0.07450837605270727 -0.3735492815675798 0.4100155346651545 0.1309456598667062 0.1861282901640315 -0.5573618925221185 0.2218730611583626 0.05533397138534499 -0.08511747922598201 -0.2287271738326901 0.706871864794594 -0.03612752447848047 0.007823148001439729 -1.015440696047082 0.06862066176547701 -0.105998796847035 -0.08459267832208166 -0.05955140192173559 0.1774683560885364 -0.2739677470725995 -0.08900235593470834 -0.5097623184102493 -0.5713599322136581 0.1332049963686076 -0.0920210817730473 -0.120481491120682 0.5635742522471729 -0.1749021399250789 -0.1526144940104943 0.04510655786727275 -0.2289905396571161 -0.01989198560493091 0.1243679296726696 -0.1969502334642549 0.07100317932707313 -0.1379930184984685 0.0195475105589773 -0.09740002663944526 0.09089592222414543 0.1620937628905197 0.1267032547860416 0.2834352944502569 0.4844630232398819 0.10431960836217 0.1017935779439611 -0.005753015667278987 -0.4382215147450357 0.8389395576626963 -0.4172027467628579 -0.6419074068979568 -0.2248944332017355 0.2781032197235647 0.04836449552334467 -0.1909839348836856 -0.1776081742306969 -0.6949862582889078 0.03215938619398665 -0.2183465096190194 0.5968857893026398 0.103681920650225 0.2362882797404921 3.792578823623397e-005 -0.1408059714957114 -0.6688342082642996 -0.0004774871072029342 -0.3986822688346739 -0.5817677404031673 0.3452467733304078 -0.2657433759097079 0.1832013078651474 0.09745715110374063 -0.2496788544815855 0.3676263379089881 0.2661403131564669 0.5223150762269364 0.2982421983697008 0.4215822634869701 -0.1182934574101751 0.1888498770001144 0.3123475798613651 0.04079310947381287 -0.07029651191996834 -0.08382170647684253 0.773736212939624 0.1536769886051904 0.3816897824874167 0.09018513740111027 -0.0115938923486946 -0.03860314781564677 -0.1973629499796015 0.4470313012839391 -0.4863502714211815 0.3383711379825938 0.1435986231616359 -0.5122316584020716 -0.1770745384469964 0.03345594406646051 -0.3579437275706148 0.1951052398445772 -0.3301580981636101 0.07350057818637049 0.136182424712648 0.0534782800132589 0.001468227003757123 0.03577918127780019 0.4255249909549808 -0.1853145116729697 -0.6658099226931711 -0.2891362849967437 -0.05182917793737304 0.1038489091128336 -0.003685697111788895 0.2796576061832454 0.05640796801455452 0.002945510329240046 0.01150874882962801 0.1023017608685917 0.5271731013417715 -0.1140453977941282 0.3136059667678468 -0.3990412649493408 -0.1409690533141901 -0.009387859356500015 0.492230928373665 0.2368416460341458 -0.1263220528266125 -0.2392185052067222 0.2058828589235926 -0.323394265300266 0.08627263533986415 0.07064914201831704 -0.4075292047252329 0.2550651107846867 -0.3189032303932436 0.08957707788350792 -0.0600629478533074 -0.4009731268634256 -0.4161830759765043 -0.248537585855659 0.2550167667350767 0.003946349411616384 -0.08049863473560109 0.3236313353389667 0.5358761279145605 0.130693725014369 -0.05905116753917232 -0.2147608019572594 0.1471419406587392 0.1398732847525496 -0.0190799350461178 -0.2134592888062674 0.07698397663312748 -0.183088973562487 0.03174338062767038 -0.5242725166700237 0.05211683308480209 0.07168379010258986 0.1266571739879828 0.3825632174120896 0.04803889049996368 -0.2971337689885003 -0.03169743683002017 -0.055902911746542 -0.5527512870594928 -0.1164891785351459 -0.04282159010774722 -0.2320074092914895 0.3212100881335496 -0.1486527678094277 -0.1011346115125544 -0.3178168831968459 0.8860133522417153 -0.3896568897955082 -0.1536266945085835 -0.2465111641885354 0.3032119554282158 -0.06427627788392294 0.09532180011753795 -0.09681737008090584 0.09527327276850917 0.01154078093478021 -0.05627677031675316 -0.046755144704858 -0.2130416903759875 -0.230737131406965 -0.08137315220905243 -0.02168325727553731 -0.2596645521353768 0.541783635013414 0.7686802199861884 0.2694933515251494 0.3680903804761813 0.05529201822964543 0.4282168019853324 -0.03451152439617532 0.02195278834102553 -0.2523261807911033 0.05456615642998228 0.1994312696526448 0.1286693783887981 -0.1456246901506708 0.04502479924438084 0.422985341056521 -0.09815543032307067 0.01724494014399516 0.008709996564231218 0.4964153356161056 -0.3297543053042356 -0.04496766404753847 0.005706173740381454 -0.1774387655839582 0.0549556231658456 -0.187800406323302 0.002794541203663678 -0.04640061212356544 -0.01505617777384026 0.1440206507860524 0.515207954662347 -0.3744051413922957 0.06874929550267775 0.08343942826014368 -0.3555000046647431 -0.07701882830719751 -0.1673473658448644 -0.1900605357937973 -0.01744809763118062 -0.3491947365200518 0.04385141544323204 -0.2842738301443581 -0.1663060552059148 -0.05834893948415878 0.02316403078901084 0.2265909581032257 -0.6020468999681849 -0.4037172635924617 0.7694450908879131 0.6885051226935704 0.2131127430898443 -0.3837837067432315 0.711746956643335
 0.06613596143821991 -0.050801466384097 0.1894461759068534 0.1688570295763838 -0.07813827215093289 0.02080498089530229 -0.00670075602697351 -0.143248470614748 0.05550712736998679 -0.1202903855144527 0.1122092719110921 -0.08849221379370391 0.008460289055672011 -0.5509960698887583 0.2556700675905512 0.1682485021595851 0.2992431267198415 -0.02781494383399943 -0.1623164413322383 0.3651682983179681 0.1368519158378963 0.1676071772558163 -0.1755322176800062 -0.01905789647507114 0.06021959845850963 0.09874847374287993 0.03523384787525567 0.4424982330824438 -0.01522355928255178 -0.3385392807190102 -0.02473015179073714 -0.2758666181905483 0.02905241861853422 -0.33158048790442 -0.1642393947520177 -0.2058354011459886 -0.08201055447642253 0.1344425988223013 -0.0001965245599223277 0.1601124777970545 -0.1038783486536781 -0.3815844307769092 0.02141019048970624 -0.2045456654333931 -0.1766103286539145 0.3078439979138027 -0.001148191187315119 -0.016507922708773 -0.1218432449772711 0.1018985941705512 -0.02372542720031488 -0.04608258403358439 0.0995576875956731 -0.415512556042707 0.07595930865108898 0.02976617986649925 -0.09125129593250876 -0.4220358625051988 -0.2232887661277989 0.05713473505702082 -0.1197334286735127 -0.2236413240776705 0.4228435986260251 -0.001063142925786871 -0.1631498207692241 -0.1852209173484272 0.399198349853508 0.01338224091149856 -0.03339210170905661 0.05524920928461638 -0.1334335096954833 0.06367999173456126 -0.0107710967137717 -0.1480771248633926 0.0530417398032913 -0.105990958531969 -0.03897533970087665 0.03058372426751059 0.001529191980846314 0.20290047049851 0.00973645808115842 0.04403544942091688 -0.002586241948304197 0.2626845806347243 0.2619654989922988 -0.3978989139399762 0.04661375434734882 -0.2630585111386594 0.1592221172738193 0.1048584211992709 0.5353360616297503 -0.01102081481752418 0.04849957405300868 0.1645917368442285 0.1521455856401243 0.2876127891466431 0.09586317766865238 -0.01830920116801249 0.01309725571513329 0.01561207711782532 0.1480579768528003 0.8018761396433306 0.1189834001819271 -0.1238215112230403 -0.366738843289976 0.04967668494783628 0.2101972124313764 0.2788079621397311 -0.1080053270351656 0.1638004336646915 -0.322862044610562 0.08362383282626175 -0.02720421081599611 0.1869143911357434 -0.06816786577842696 -0.4015283560585614 -0.05178270400666408 -0.3764926870524237 0.3056216865249321 0.1453976922418725 -0.06118419325543957 -0.04929824924341718 -0.06351284572627597 0.2011682773289791 -0.06671198021821466 -0.07614703534319178 -0.1969486043004875 0.1750951613066816 -0.1451233768268011 0.1409733942583658 -0.03332753307869699 0.3741234954569047 0.1170282546442063 0.07594507122118518 -0.01351782297693912 -0.2583069703356184 -0.1538631947267685 0.1436381681888494 0.1925814167342105 0.1846300971308532 -0.05345391920354552 -0.1650665002546239 0.4636888665043875 0.2066048107823934 0.2115574095286053 0.01384071515560823 0.4131960562476511 -0.1479498997666692 -0.1236023993131257 0.1075515071299401 0.2224603723009867 -0.0404829430679556 -0.05538499615743413 -0.1381922757548635 0.1045391313024993 -0.02132228128584616 0.01592199542038489 0.02306305140230446 -0.1585021682705633 -0.1035460790413823 0.1398182098236359 -0.05457615428068985 0.07217744823925938 0.04408723245013813 0.171415279142058 0.1161317147226914 0.09005406484760289 -0.5067596306486652 0.1319097607533101 -0.4033543542482658 -0.02802833280196065 0.1573826198195721 0.3328058688257785 0.2702963049493608 0.5250812330633916 -0.06249434976683815 -0.09582666980656368 -0.12970140663136 0.2732539775647685 -0.02045585745643181 0.05737440056814212 0.1327490417468725 -0.02823259547388782 0.01195449994411246 0.04947250498774612 -0.297775107838462 0.4078172840014941 0.207386833118489 -0.00420336604198006 -0.1533416939209221 -0.2939827762915678 -0.3027166335083903 -0.1502430578597739 -0.1113145669945934 0.08556018651255919 -0.01457311379206726 0.02396754476412727 -0.2126093778057971 0.7482286233006741 -0.09709211408112303 0.02752516829184322 0.3407451938354488 -0.04588768647228592 0.008676205230848364 0.2071073468231903 0.07402178422516964 0.04613707962233743 0.3524914900057225 0.1092450753381019 0.04172566317904371 0.05217554154852538 -0.3076611643294677 0.0801919995544377 -0.00950899271340085 -0.1201015303629998 -0.01735317914615196 -0.1776748236365753 0.2420260841382611 0.06962113511980156 0.4706409278030669 -0.02551745097862668 0.05903361228137027 -0.07596232338770822 -0.2148077235314695 0.05488165355340398 0.01236948236786507 0.04427329950908317 -0.03546245208427835 0.4813719794136772 0.460695452888456 -0.07122854414834442 -0.05434869709884041 0.003818239156027679 0.012357787784355 0.169696809489231 -0.008230315306601278 -0.006304737216689934 -0.5524364534146985 -0.06578240815084056 0.01572369804935986 -0.1426276958035498 -0.1605097738108565 0.07263819273299012 -0.3928786930112193 0.2057134508786507 -0.2063894553168 -0.005721708908604826 0.1621606253803508 0.04263323992771099 0.09436961816543037 0.4297965699563209
 0.02751207746969767 -0.02461677100995256 -0.09026590013538317 0.07863782262903833 -0.0428780514906644 -0.02850364960597553 0.00421840042838601 -0.4607612941708353 -0.05300203765125219 0.0461171427774288 0.293493831787617 -0.1104980406526502 0.1931603926672761 -0.4152937655308274 -0.1930062003211509 0.7488229075450884 0.3588644242377757 -0.01867733353292844 -0.08497926748485592 -0.2785460344100133 0.1359203434218771 0.3187712994490181 -0.2427584552721435 0.03838125818174274 0.1855957104449713 -0.04806257441797511 -0.1535062090913573 0.5601425884676311 0.01769089438592325 0.09026056414256835 -0.05472373242260389 -0.1233275698003665 -0.03345126347835131 0.2658553694417639 0.08323116192924782 0.1420060096460752 -0.1784581940057169 0.2443709912302042 -0.07774123442534132 -0.04169027439269084 -0.1341598098596783 -0.1875904272584791 -0.1994484670244691 0.1070422066981324 0.1203600636893748 0.2992828847565166 0.2097613514300267 -0.01673093817750707 -0.2374780766766327 0.04770683834314225 -0.1063089040187069 -0.02593418436913281 0.01085501070016546 -0.3290297737958231 0.133710892335285 0.03692286846017077 -0.04918506802307301 0.1988863930085955 0.03106805457740903 -0.03972435858811589 -0.4037228770949557 0.07833339631410637 0.3709403203168841 -0.08467652587256515 -0.006651269347262348 0.3128955232639897 0.01580045125695263 -0.1082424756232986 0.1864864732052038 0.1506351246473223 0.102827483009117 0.278968634639095 0.001476453057215222 -0.3681426601526666 -0.0426080921005767 -0.1346408964705984 -0.4401497191275204 -0.1465258159404653 0.6962990131755841 0.02138901527088284 -0.4271364814717255 -0.03652405805556533 -0.1585880588983963 -0.2179857216248843 -0.2000783297407683 -0.3246147524562443 -0.2067818032231704 -0.2279737874243064 0.1024429582092746 0.1541341751811194 -0.4769460162449565 -0.06216014125565715 0.0561943424974768 0.1164419333305534 0.005260787105474371 -0.2316502193104018 0.1129639756592302 0.1384468859922007 -0.02749811589213226 0.01166084057352259 0.3550066185262746 1.09343170478858 -0.4427511091274802 0.02401216894939311 0.06310231939090218 -0.1099188606869716 -0.0047304794304387 0.1437688803531996 0.01086640036380744 0.0009046046107705962 -0.1039711042996872 -0.05121171863466319 -0.02181737031364517 0.06651248819646462 0.1303058250558825 0.04376254438697144 -0.09500931832999572 0.3138109953826503 0.1188752124350307 0.170581053391205 0.005712931706442771 -0.08869083246565217 -0.08468811041662472 0.01624432299264794 -0.05014177092876535 -0.05423548097549197 0.02513636421501363 0.09021095176320115 -0.06352580749232062 0.1459440460469958 -0.07392489289666308 -0.1132899136690552 -0.02036499597230269 0.02064216990889964 0.07060715740679975 -0.1873742096790718 0.03491918893460959 0.1891212541580003 0.002693444347020957 0.004533189169541132 -0.172880129717997 -0.2880749824189056 -0.01184341210651488 -0.2966597001344835 0.2802427399065652 -0.02774305246455422 0.003635377356334693 0.4582866887598998 0.07966473096759884 0.05222259739056882 0.4159302722047432 -0.05024201790186496 -0.02827074854660348 0.003238689802632512 -0.1032887384237417 -0.2080155014028912 0.05802208437494101 0.2286553818350075 0.08841703613763198 -0.09146395549433858 0.2496428291910064 0.1902728869717309 -0.008270524651481833 0.0327806343985647 -0.008012170781181773 0.0009615260520858525 0.09941426507988145 0.2102175948190345 -0.4802668955640804 0.2332773312876051 -0.03733711974373841 -0.01919696473619601 0.09663548265649023 0.1002005116495543 0.09202669411665158 0.5015344603903275 -0.07772748969742578 0.02657633173164746 -0.1177680447027347 0.05294550374057083 -0.06941669296272208 -0.1430582778265724 -0.1719696835111605 -0.01412764656019307 0.1992610720230414 0.07589031470995593 0.3390415521402856 0.3217150092998706 -0.4559988906752896 -0.08785023037397185 -0.2954311767918256 -0.133940523444764 -0.0758745434484355 -0.1326942995053602 0.1481649239179112 -0.2802224360512919 0.03385011074261501 0.04061914361378373 0.8456895111609311 -0.2888070275742208 -0.06722812731535729 0.06955553703126303 -0.1251427592703629 -0.1488395252305886 0.2704591980725873 -0.1099990235203458 0.08373505501241293 -0.001760928490164843 0.1899798533698708 0.06338332999822462 -0.05889850661552959 -0.4975424028164341 0.04965742150211957 0.1387308426017499 -0.04166944923138331 -0.04877854912893956 -0.3208634087417283 0.01438989534822581 0.2218634669316189 -0.2012918863320763 -0.02655736960423404 -0.01157350889623997 0.2595080139337883 -0.2572501866215405 -0.02949898430347981 -0.02753018466170664 -0.01857299172407012 -0.1784784315527583 0.1519677305803153 -0.04984173078117256 0.03052307966856474 -0.06864075026277518 -0.1173119648313334 0.01192963594440512 0.2101013643720885 -0.1037994982529143 -0.01069943662823377 -0.3508233381767767 0.2014185809649688 0.1024154281326729 -0.05528786426925079 -0.03541468767391008 0.100828687572285 -0.08410484247066645 -0.1688761398450985 -0.08688025436374232 -0.04226927247193141 0.09311455098559021 0.579616583983887 0.2715204242649522 -0.0827778772990638
 -0.1237623926187374 0.01714340229232886 0.004373171286780387 -0.06150684644584198 0.008044754609395506 -0.05534784989559155 0.03118659098095181 0.0363462301132455 -0.05116534274686148 -0.05141164725771608 -0.001139085187666819 0.005838275286524847 0.04582947380303666 -0.03181310345037527 0.08940420413321827 0.06097888139310275 0.04293008965675588 -0.001462118045857117 0.05256377315037306 -0.01589155426566086 -0.05630178810848149 0.05193612575507593 0.06063482518759766 0.004560764697382482 -0.01208694076689379 0.006388483649069531 0.001252185688834814 -0.06079354080456685 -0.02718711110615128 -0.03026897793376375 0.0122336114740522 -0.003779137427749919 -0.07542220149303561 -0.01869172018469116 0.03196648866106303 -0.04957076623976935 0.01783405752777324 -0.01917797128176453 0.08558580279896193 -0.02661754783064546 -0.02192465181171906 0.005611685603130441 0.008335790498055693 -0.002912669203590545 -0.05861317520787614 0.009806114764550483 -0.01587380575039132 -0.001776279425962353 -0.05157821983965493 -0.009548065143066388 -0.01454914192993012 0.03409829584658083 0.02516385805785761 -0.04764543625903468 -0.004852080272294311 0.06278585587504254 0.006430956087508924 -0.06212780822235704 0.09523512566215427 -0.02046548001212101 -0.08722798984437431 -0.04429042448300354 -0.0571716357250192 0.02446468116751067 -0.01251946508771401 0.009564487857205307 0.01776144461482589 0.02470387554099289 -0.0617125538797216 -0.04071051890743934 0.03114883945883274 -0.106201956110429 -0.0090202297384104 -0.02063142379698992 -0.05980529903009165 -0.02032046549041919 -0.05880545360622158 0.05748262157014507 0.002231174339297796 0.000621522113697418 -0.003955819836950035 0.06900437811441745 0.02226158294182205 -0.01802909673829713 0.06613426410775011 -0.09884240556420319 0.006173934740696277 0.006544204359234113 -0.06693177474931375 -0.04039616236129111 -0.0245048192563031 -0.01710597373575699 -0.04417747128972831 -0.04148138535018685 -0.003201347579939773 -0.05303468984307542 -0.03985135211997994 0.0243033414837607 -0.02432489062771829 0.00121965661534956 0.01347162847336977 0.03208965163669947 0.06368145035265016 0.03262394199006093 -0.01346416686171319 -0.02243288466859681 0.02893684021493146 -0.04274389002724567 -0.05395904870311773 0.02047936857589519 -0.03713445946731996 0.01367134156908483 -0.01431268720210067 -0.02518430275183716 -0.03243707073582095 -0.009156615675259962 0.02198108063874847 -0.08681980766923882 -0.004022537565195087 -0.05933141004529539 -0.03297329833804328 -0.003664603622664736 -0.002568040056070057 0.06521576023754046 0.02202504220741687 0.01574000100790118 -0.02873359115091568 -0.05535364601901199 0.04015667252126903 -0.03310992167549205 0.06212417137398357 0.02339366358150536 -0.009052755184321125 0.01228793531743485 0.05430029287456396 0.03006353035421018 0.009322364802161897 -0.01139532971398172 -0.01417569991521865 -0.01971027355175849 0.01769390032075061 0.05064343448788808 0.007592203984462483 0.03339374614831478 -0.08377816848580574 0.03369645170194443 -0.06823897771231466 0.09498648274440273 -0.09132297665560704 -0.02667336014640357 0.02604220672473537 0.01932280718025129 -0.004375916294244239 -0.00254456682865119 0.09422506629472797 -0.007680116431612529 -0.03665340604578844 0.004202143070192054 -0.02496441973103006 0.1060695824927663 -0.10404546283395 -0.02476094325030482 -0.004378718466642965 -0.05908285176094906 -0.08441824558161747 -0.03280559230534871 0.03999908550866627 0.05559412602313726 -0.08741385260887463 -0.003156074585186111 -0.01860674022321313 -0.02499175962909607 0.000664490765771308 -0.04536405138486346 -0.03998827514764546 -0.03463201267982263 -0.03811400375447505 -0.1071285466371886 -0.0006281870400991481 0.009914204299432336 0.0212940128884072 -0.0387450204204642 0.06475811878359795 -0.0739779389078954 -0.02871982863539918 -0.06819999194873777 0.03183323277274833 0.00213656522601575 0.04116728807703172 -0.03606171757147875 0.09153523237464103 0.01281025946113833 -0.02500703566071126 -0.01906789256900416 -0.04733712113198562 0.03190960934029872 0.0333936338522185 -0.04543824194542917 -0.05875774318001822 0.02041379422372493 -0.01634740391403296 0.02845997464399989 0.01737175930046378 0.02564823302704105 0.04937630501940155 0.01059410180322465 -0.004026270611050796 -0.03006659541442787 0.01702851095224088 0.01193843925921865 0.02263745069713682 0.005933023639125041 -0.07887217940338538 -0.06106270447811223 0.0193715543866849 -0.02585058365760626 -0.04176334757822836 -0.01695585676108083 0.008654004605030817 0.003332728584921744 0.002127443578045954 -0.03510707903456459 -0.009112013515554886 0.07368419685309822 -0.03036665245626521 -0.01424668725235274 -0.06183924185058125 0.07109148820098397 -0.06750664465667863 -0.02223146620985701 0.07430357099399361 -0.01283113365944474 -0.02160383833891346 -0.005260771232753259 -0.06241707418705247 -0.036175905134431 0.007731958873550503 -0.0263727350542576 0.04429707206459491 -0.07157100394726285 -0.02418481917814178 -0.04130898825098711 -0.02120991916866579 0.02178848960676172 -0.04811391990659243 -0.07595950323566425 0.02100241445684476 -0.03157443790377478 -0.0503563873513623 -0.07660649185180161 -0.04708326648917017
 -0.07414506740768055 -0.1336320975175056 0.2936830612221921 0.06264550608460055 0.05962605561873198 -0.04903295496616025 0.2159032785447721 -0.06770479060776258 0.09096666675530463 -0.1013910580463569 0.08435333691875213 0.004841121978957107 -0.07754246677693664 0.2775040834642313 0.1821881802082225 -0.01765428040616708 -0.1075011773343209 0.1214900312702306 -0.03323299339575127 -0.01728556625998199 -0.07990352463932879 -0.1372956389401738 -0.0412370304224295 0.006158138524147983 -0.008916963036505885 0.2126586020500615 -0.05500896148668168 -0.1029098228723985 -0.06124139003140965 0.04682382402558301 0.1676449739860397 -0.3031956864073463 -0.1285281512432918 0.08879197848951854 -0.07030932576482297 -0.1196349183871362 0.06123823845487859 -0.05343374702959677 0.005206936097558128 -0.001698813409309688 -0.004114567127774723 0.07364547744899398 -0.01722522110084309 -0.04561813679885641 -0.107833002564574 -0.05691060913526728 -0.1047910479315478 -0.007228107170226677 -0.03294275763780618 0.1156491080574932 0.1022531139966883 0.0505894739736027 0.03294095261608714 -0.05548573887337423 -0.2910889179324608 -0.02670145013454132 -0.06444288917981497 0.2829717712393323 0.04827422363363673 -0.002381615067116922 0.04182830963781344 -0.2095280227350331 -0.002384292720872255 0.02425861030279562 -0.03300803486839461 -0.1268703124569901 0.01156725341935745 -0.05386569468738492 0.1859414631016067 0.2050725372773521 -0.1828686263886755 -0.1534274685773139 0.001372768181773642 -0.1424236594169537 0.04599239648271257 -0.01785579667865699 -0.08592722902152525 -0.05672187642864759 0.0815461380197126 -0.01068794910963655 -0.05940617136410882 0.06637322901147652 0.01442305662426479 0.1317809766992435 -0.2390895954822316 -0.003707060057106653 0.1246113838011812 0.03582076434001425 0.01303490580670768 0.01053492529976816 -0.01713059501854026 0.03716114350931204 0.0314037707014921 -0.07550910021233745 0.01349342129063397 0.03302935104667383 0.1891592975691264 -0.1870332690907526 0.07326690404535217 0.01105802344561905 -0.009191290156585739 -0.1042462870146221 0.1407090427419233 0.09106003906134429 -0.03724414375688914 -0.01579710419537437 -0.0479084993730844 0.08875422906719405 -0.1586365546009499 -0.005850883603532002 0.04458097818220527 0.00386061107717788 -0.1643968063971557 0.08016456589267176 -0.1263759833424786 0.1153557237316103 0.2503771369387953 0.08146153106110179 -0.2349022745948865 -0.09624253277369765 -0.0003266416871611174 0.02519144935127604 0.09398946123371579 0.1439299034650897 0.01151658547681055 0.05470094752549055 0.117856881695798 0.2590516239664917 -0.1350964182557385 -0.004232202036189436 -0.1015156621978637 -0.01618725240932323 -0.01496273037857945 0.1304554859530506 0.05900921815114855 0.1514989727411633 0.2327127702685184 0.04176101390886035 0.1882557863966034 -0.274042441699467 0.184299732567189 0.1209613190497455 0.01365703706346759 -0.06930489371648386 -0.1777053334404987 -0.02295987737531217 -0.3262418580359308 -0.103369864132181 -0.2211093713186414 -0.1046539177450763 -0.05368935498329024 0.04951853176295727 -0.04697233601412904 0.084019544381311 0.1345595448992933 0.05267011491050919 -0.01681022079475078 -0.1868906179521416 -0.1083795955674538 -0.1358943489566982 -0.104128327892172 0.02051572571034267 0.1014929343026528 -0.05861317324812985 0.1131586250851429 0.01346865025401117 0.2600967896717706 -0.1195440461957039 -0.09123560789486254 0.1704664947166342 0.03651462077340115 0.0300076832742368 -0.00519500913496457 0.2214904852753039 -0.07892052463358563 0.05655163263562984 -0.05588452057404535 -0.09677543654812747 -0.0008189695587353142 0.03408946786669367 0.09794386908205513 0.05784231277066058 0.1028516029648912 -0.05284503325019414 -0.1968657118990275 0.239607357445621 0.06364186412290085 0.01282594398916089 0.03479362425489518 -0.138367038462836 -0.1328612333034237 -0.1188534960403602 0.008848097971292277 -0.09855991547859805 -0.1434346242650483 0.08493271978220775 -0.03114484626217193 0.03351770711304045 -0.05747341557613188 0.07473505699472402 -0.007448128027670163 -0.07620773863164813 -0.1097202463066903 0.1089171988191683 -0.1101170972681946 -0.1800207724709371 0.05078129865823356 0.03750055618319633 -0.1119442260755149 0.05318103807835517 0.04015697854894867 -0.2029030698821976 0.08870091162162533 -0.0497948765088988 -0.09525545456924177 0.02737562505824528 0.1204069765148061 0.00704558985295647 -0.1156822684189414 -0.08514781314729387 0.04844793494278915 -0.1102547833301564 -0.1379003284619187 -0.1603790885378573 0.03579451441847312 -0.01408328571448842 -0.1348187207940102 0.1725126705210859 -0.1787470014273647 0.1225105578495601 0.09125703343557814 0.05144076681332383 -0.1904477570404875 -0.02570823612742297 0.1855078505897472 -0.1029645335247863 -0.0501228122468282 -0.09837834250349627 0.1039408135906525 -0.1020988165302385 -0.1435902682327634 -0.131691960148601 0.07600831861164981 0.007327086714215541 -0.01417097161341897 -0.2614574370754019 0.08726943805320529 -0.007752584805285516 -0.08517299432154153 -0.1457992210329257 0.01307635132147468
 0.09046188384421194 0.03858315975036936 -0.00688132731746775 0.06311003946199649 -0.04002535541217943 0.1298708578629049 0.05513315713969858 -0.2533361927998641 0.02257236431310138 0.08396278208124155 0.1548422968064341 -0.07655718685194653 0.04123565725660925 -0.192072197453181 -0.01586006556268675 -0.1442977032389556 0.08909062588012133 -0.0261433390625033 -0.06915252124114298 0.04994537413501106 0.1430724204790149 0.1223587741768897 -0.01629398710329994 0.02552344625079398 0.1154796105609188 -0.04539168897499529 0.0735353172028697 0.09220281847027229 0.05145842646167856 -0.2405711158730323 0.0116474691272104 0.03074666424484823 0.06305761340103051 -0.2218697941055404 -0.1851923173483422 0.2928462717602326 -0.1072298229726652 -0.03116255096469488 -0.02248277165982003 -0.02191499324683514 0.01853079067712061 -0.002319183664124863 0.1462462360230261 -0.1098181943809272 0.1154067817258976 0.07728995920395575 -0.01051507422196971 0.02943577024444461 -0.008509956141898525 0.1495894861884102 0.09888813809589236 -0.05580326195294627 -0.06584859874800351 -0.06136495958017259 -0.137457313224639 -0.03633211599941653 -0.009919702665736283 0.256647324444076 -0.0223644136605202 -0.03228594375198329 -0.2250367898348199 0.04562417050887 0.1222578593209733 -0.06171113928194467 -0.005218448385093341 0.0397629278468172 -0.3104009614305624 0.1275328314297806 0.001368530276029439 0.2022984695991492 0.05645853720774491 -0.05091547842546067 -0.0224802906335101 0.1243687558537668 0.2010394344883047 0.1173321414431933 0.1603771511493716 0.3570233776970018 0.0931610380880715 0.1624142867767935 -0.005596239382382608 -0.1572661856958808 -0.007582098623161349 0.1509821722989913 -0.1337843526634965 0.1680387490870027 0.04476602976624965 -0.03098505933650279 0.1357512433229579 -0.1702838449346664 0.1011131649611705 0.03445449752469392 0.09570475829373401 0.06713127577977063 -0.09043956923532377 0.05674408737989176 -0.1162568645503821 0.1954805302860365 -0.04975428627318616 0.01481678709537008 0.06782268406359925 -0.1397051766818175 -0.0890241467805033 -0.120948898369025 0.01201557183916691 0.2150441999758928 0.1262590318050571 0.09933880518216918 0.1132680546372295 0.00057186919710712 0.1636162598930267 -0.02306335515206187 0.08693481786723531 0.07953449965327239 -0.01724753246945771 -0.0756341427324745 -0.02903623254973522 0.1995109881908201 0.1090692398155319 -0.03884207131895344 0.06088799986950327 0.01444506528971393 -0.3185912638081169 0.01196167692969553 0.02991295167537021 -0.05997101773809903 -0.2163159028035802 -0.03162875631391683 -0.1932075573828338 0.1104251662425213 0.1619248314734306 -0.1113810665815651 0.09373076189549866 0.04194375926503344 -0.1415350657147949 0.06105483304025444 0.03847818828935679 -0.0986849170987812 0.06254308680025111 -0.04581600297760662 -0.01651550760446315 -0.08870767999101566 0.01377585116949243 -0.1003567351625223 0.2197306556109531 -0.009347085209959964 -0.04503516298224778 -0.1965135025736429 0.1087930774642541 0.114952655718592 -0.07622082058356945 0.04251399631665145 0.07927597948174918 -0.00737584013410014 -0.1345432871021082 0.05206762303284624 0.01225540710727169 0.1102308360293686 0.09380579079748882 -0.06378204828797501 0.1731324168796974 0.1633783139738872 0.006271955816978043 0.1119224603668785 0.02499428822236055 0.1301282479594915 0.04483135159618421 0.008657695781043539 0.04950673194092952 0.109284472785249 0.01841117811827785 0.0003416453250151397 0.007705081931325948 0.04420379528017143 -0.05654433473040167 0.1856222425088219 0.04866916246387286 0.1489804307822299 0.07444442999927275 -0.1217888670563341 -0.07181887367726036 0.1336386657673555 -0.04928799364510691 -0.03173335515963345 0.06745847364292501 -0.05867980632077646 -0.2153398440860955 -0.1530381511706366 0.08879347399181028 0.05686753565822891 -0.1137122122162254 0.3027242296688511 0.01340013918324176 0.01737535381811997 0.08055922264365074 -0.1062475838807527 0.03228697918125694 0.140213266417529 0.04355279938544079 0.1205292761987109 0.08751753529218759 0.1328188191387832 0.01795551137473423 -0.06199685517772176 0.02457716382441573 -0.0365652219831992 0.1258070629323977 -0.08434908502815414 0.01150382859367477 0.05352151389776206 0.0170991234522263 -0.2874847507187205 0.02971639232039462 -0.1193287601431908 -0.0772757353726809 -0.05302624413616475 -0.1471442458080642 0.01299882729152056 -0.09368663175546603 0.03738184868231396 0.02098813522727334 0.004865968983608401 -0.03936719171257057 -0.09658079710734119 0.02531915892121832 0.06913459735771325 0.08559397164934622 -0.1047296495059867 0.1468359043391441 0.01012913740710204 -0.08305504332297943 0.0400904447250705 -0.09801475316036602 0.0478306376425405 -0.2250040733064241 0.06786458066085257 -0.03840197254567214 0.1716084631607478 0.03847424170739992 0.1836096370195617 0.04216525367788239 0.01751856378392505 0.07021594575178355 -0.007524109720382894 -0.08120791070237411 0.05426476751955513 0.003580555139442872 0.04086556525686635 -0.05489479921467122 0.1937036798011547 -0.1223147136416654
 -0.09551011092096119 0.005610319238510671 -0.1033339512580582 -0.1687880380329814 -0.2639825084996882 -0.1257928554934118 0.4657437567232225 0.08941115931546778 -0.2375579696341201 -0.1914857685509045 0.0142757047878679 0.2293760905008016 0.02097752469211498 -0.1571301696149371 0.09629913280784565 0.1679947155839644 0.3500687155491679 0.05299310011536877 0.2996685564489527 -0.001763811622296858 -0.1661040350126805 -0.3747492723349168 0.3514973769046961 -0.02259959777408826 0.1010773763111485 0.02816498838322187 -0.2912837980733189 -0.1810538543066276 -0.1906418659174786 -0.06934094578173441 0.8983976747640716 0.3229513723184261 0.01610755774282657 -0.377994659108176 0.09674641817264046 -0.08829178757857226 -0.2174039041105892 0.2279375730289011 0.5549550081787823 0.000983125584224876 -0.3149939459988212 0.5279207099483639 0.1855969450188142 0.02996744805267987 0.4204127324867976 0.49447316200518 0.2481103655894093 -0.01658195431507813 -0.1692035426563362 0.9816262310464676 -0.03727951510365312 0.08741857421756366 0.06367730188822278 -0.3541339068253915 0.4029400554825675 -0.1434547554001944 0.1055020508747732 0.1875222052904836 -0.3389891011712882 -0.4665081997066555 0.4674182200113637 0.009845064181969657 0.3179438521448241 0.01694785307598806 -0.04163963059950608 0.2788596298211945 0.2538391282575968 -0.1074009935473994 0.2088996371795877 -0.01206796072376951 -0.3645564656184557 0.002387666106905364 0.0031754065589637 -0.3306871066638729 0.1684535086681212 -0.3779837092145115 -0.01579387247328187 -0.2133653116705955 0.1720553017890711 0.3023123520829861 -0.1253432204205517 -0.1193561894130886 0.3993481994371808 0.1140043488979553 -0.2394481757356958 -0.6891589813158628 0.2288053452885966 -0.06242564355744679 -0.1947875547638134 0.2082352158648451 0.2027898178325988 0.01402010887090946 -0.102853028757796 -0.2362374327225913 -0.3337537441397783 -0.3984634063050503 0.7924641145634109 -0.1620875984570118 0.2760195409907433 -0.03409599994916067 0.08744328788434341 0.1291893343053661 -0.1930803068671993 0.08532508970527546 0.3420798027454299 0.5655519310518002 0.3996023157500453 -0.09576584419394703 -0.02901415438195883 -0.1950327110452308 -0.2040009633204133 0.1386872244870527 0.1546369677501523 -0.1500172158029823 -0.1714925799164287 0.6125258362386777 0.1492365236717209 0.4872988348247535 -0.2902723259198412 0.1971441633782335 -0.01742595151164531 0.06629965938801347 0.08235661343062912 0.2280721808168967 0.01897964520471673 -0.08139779366441599 0.05169537428458871 0.3269075474594396 -0.2680024057687871 -0.1671846632319255 -0.5151878731308656 -0.3041301402476122 0.3472059544394773 0.09660778121746114 0.05370346770552709 0.1349662800340666 -0.4579225713528728 -0.128817941463516 -0.1534867659317097 -0.143428255613184 0.1216994362483637 0.02396980875658245 -0.1558454475486627 -0.261056661566336 -0.03654405830893848 0.06471567663537205 -0.5134493166402329 -0.1759031808732405 0.1965857616411839 0.1989769415095138 0.2673643720077867 3.497049471023937e-005 -0.0489459434075017 0.1848109529487718 0.3897802886750586 0.1222627006992734 -0.05599515135475048 0.3866085528594716 0.4622288248985899 0.5164619471137567 -0.2730408440878017 0.1105356848142719 0.00752344304390862 -0.1909698358792317 -0.3386172767588161 -0.04972769137434115 -0.005320160202593661 -0.6588508152701822 -0.9626812179751811 0.03158763640404247 -0.008693143725856339 -0.01427874932728338 -0.07530270409777644 -0.1997266631817487 -0.248864189216621 0.5958082759707116 -0.2707298458965875 -0.2499589204748736 -0.1284715412125922 -0.2309201974464441 -0.03401822324099842 0.282419705636645 -0.1239216428079507 -0.394561599706015 0.03250029873397917 0.2221223361177317 0.1949370881426517 -0.268395054887318 0.4102565397231532 0.2127630793310167 0.5412095959982023 -0.7377729566872188 -0.3238684690572155 0.2552255168094353 -0.2090692394284487 -0.2720129140747242 -0.0163374024882511 0.5730502119786879 0.2970923614529942 0.1976108238930645 0.06455120743757574 -0.0008506769122135999 0.1220810331547673 0.01979442743911124 -0.2306598467865061 0.0008754839065077201 -0.0494083459509172 -0.3017359950160161 -0.04721702013428677 -0.1900371878219713 -0.01785731381499698 -0.03513600752053923 -0.2203617936277406 -0.447329059474685 0.06238826367303228 -0.1899046013445189 -0.2652470238861238 0.4353689904882479 -0.008185135730116184 -0.3764378106485817 -0.01256843205104261 0.146364765039803 0.3327513550092096 0.3873113876466424 -0.04866982139820315 -0.03667950541830312 0.3521733581810729 0.2981891688148809 -0.0420556761277715 -0.1762921928478657 0.08116776871158558 0.01725671209119722 -0.0951873976375011 -0.03321587026403393 0.0982989819670701 0.1310861949916972 -0.2327865800090583 -0.5850448439871282 -0.05446783687320629 -0.1298942786756418 0.03011675613180112 0.002530404050314149 -0.1029696632672724 0.3022245713218464 0.6686501721624971 -0.1632759047373971 0.3283408334389109 0.05112605022893176 0.1159462331743199 -0.2205617828903629 0.1259531109566611
 0.05351008064705147 -0.1071513404399988 0.1721478636329402 0.08223832367432288 0.08630411150715214 0.1127154532782387 0.03049648109509156 -0.1062777693872923 -0.01143740434108455 0.00155865461965433 0.07234936616362304 -0.1149519927637743 0.1110441014056836 0.03820243015922407 0.03930506198445762 0.04711286345418088 0.01693528940644736 -0.03678057084729295 -0.1233066597989202 0.1799547009896834 0.1126994099942522 0.2996264972474221 -0.2235603181946491 0.02907545313904684 -0.05175980399469342 0.05717983367972979 -0.0446161550732292 0.2357190895637745 0.09200557720285406 0.05648861182951127 0.2761404861570287 -0.1102060831425955 0.08136679672992907 -0.1460460516088504 0.077760275333012 0.2059608667071099 0.07250733515652459 0.01460804717997364 -0.06518171953537423 -0.01327609840056959 -0.04140426009555215 -0.2422235005954034 0.02450172855786349 0.1191297918128039 0.02524869991159413 -0.040277069548378 -0.1622352467262811 0.04380650336560754 -0.03779939942557778 0.1755935688088602 0.1508159242705872 -0.0674491790182019 0.01673523349768545 0.1393305278408441 -0.1852646364403571 -0.09892390302532048 -0.09841809175008051 -0.05277520549320187 -0.03613113724791571 -0.02000137842006307 -0.1173682764343252 -0.1269061946696099 -0.1304071132261588 -0.009724307011431491 0.00949038869918397 0.1585430058993186 -0.2470322615247655 -0.02146670824292828 -0.2760556143725689 0.417638180707558 -0.259342301560798 0.06203684687717458 -0.005239913915923996 0.08098015697584925 0.05376607588570056 0.05178854876040786 0.04831984296294084 0.03356799199430918 0.325044622843959 -0.1572833512992443 0.150410506873242 -0.05894875841614099 0.2014392514767217 0.1700655032056523 -0.4725615362021779 0.1733587766065613 -0.006680759555802942 0.04818507402616871 0.1282909514263473 -0.04761197452157603 0.208581323298927 0.03550098410888788 0.1197442172168787 0.1100243267445489 0.1358582104432881 0.06928859016559336 0.1526090909694098 0.1469534616356461 0.06602181847335196 0.003731253657645489 0.02971231308088527 -0.1019028410157519 -0.4949306275934784 -0.2229900197403233 0.190622789279704 0.06280351084732871 0.0305707116972949 0.1569668808671894 0.149451946036027 0.1792480540296782 0.1146733917303006 -0.01677717521626918 -0.2289859386449933 0.08075415658893591 0.03289138671683629 -0.180529473635817 0.006232435122651515 0.2254495718238599 0.00990449875463335 0.2245315084428762 0.003449681218854613 -0.01619902266173786 -0.08561242843582192 0.1084472270208833 0.04726715092029664 0.003014618267404858 -0.07955182507377238 0.1505606429839828 -0.1701308317452727 0.1321565111480375 0.01009993706924946 0.097841020800956 0.04843821661344377 0.05857017691543518 -0.2069973688939712 -0.03388229269582382 0.09799607005748159 -0.01674601444150124 0.160574215486212 0.06139617995186945 -0.001975234164745037 -0.01321609307636888 -0.02263621893925752 0.1086806507133648 0.1979625722907679 -0.00995431337097471 0.3186426051955973 -0.1202326234597431 -0.0267383828375022 0.08566709809597256 0.08239027424130721 0.0459304656437993 0.0681754773003891 -0.02307320852318298 0.03805714725760972 0.01236317946819046 0.03823938525526451 0.05022849416999594 0.248590773639124 -0.1711238949460585 0.2775195927151075 0.0225200374574676 0.03948020066850891 0.1295971389283493 0.06598726453670614 0.07340958071311462 0.06226159498648378 -0.127457910159126 -0.03483785521997458 -0.1066626239333722 0.05466255333224083 -0.01686332187544139 -0.01118360398996983 0.132525218356108 -0.1340838088182188 0.2006974246115653 -0.004931321871024512 0.121572084861435 0.06602889556128209 -0.08229079869694321 -0.0151533040387636 0.07761667668495482 0.1483615940307155 0.0629411797362216 0.09558080963892863 0.08981378161035486 0.03819795523751852 -0.3572806138214208 -0.02542514758065528 0.1933744401013074 -0.2433766691934079 0.1992388815831308 -0.06700248722708516 -0.1057675859286788 0.05126888972700606 0.2225300171114115 0.09146982059321239 0.06018847576498779 -0.05411460990609959 0.04247906172449391 0.07877631092694078 0.1985130515566992 -0.118984406961497 0.000940080051771689 0.01726546156756548 -0.07586355591332121 0.04567593925382706 -0.3191793630476347 0.07209614828233876 0.1407769959205661 0.09334786206852007 0.004894646574873156 0.1457846743144315 0.3353604358279395 -0.1184690553156743 -0.05677759050314611 -0.006557339120662119 0.04367408575652779 -0.371667584042739 0.08399236451893939 0.06292274931395321 -0.03299956981070049 -0.08461979003715067 -0.08323853187288902 0.1034501951447813 0.0998983407030082 -0.009868825729107029 -0.002729009826445509 0.2306465376931081 0.06053743595682243 -0.1492185346337584 0.07542105036254958 0.0628489816409835 -0.0006980789985401778 -0.2224055151434075 0.04494686986194171 -0.002369891795302199 0.04035575522141408 0.1009959351745961 0.1596843179273369 0.0157784547990078 0.0399275306090999 0.1496352247285234 -0.0770538502145713 0.0631800935747166 -0.01470648344683475 0.1258987574131083 -0.1685837466061085 0.002697437305272295 0.2008195669446264 0.2057215753704408
 0.094685410205507 0.02529603734761686 -0.02335918838454882 0.03554913444433023 0.04421340287008158 0.04121262167110079 -0.04660465532886342 0.04188693729595774 -0.07361243428797751 -0.03315519427251374 -0.01857802299016224 -0.02412027416866251 0.06702310041465741 -0.039555134365826 0.02629114923961033 -0.05462180514442207 0.05747033668870904 -0.0409140293437659 -0.06007061982359665 -0.09225291615726589 0.04156611206759681 -0.04987587979446767 -0.04418217530615626 0.02335828749542533 -0.04684457601388935 -0.005223612799868139 0.06150887303793354 -0.05492471887877028 0.001873688476332228 -0.04308477625737066 -0.02686093774688589 -0.03275668975558105 0.000636835779447464 -0.01658178226716717 -0.08628605510874671 0.1394845223400665 0.0008026134315256159 -0.008163108089827264 -0.01995268423268465 -0.02676921355909745 -0.04882590035696938 -0.07411948816242314 0.01573198482578085 -0.07095559279956261 0.0681182577868714 -0.01813639094477458 -0.122777946114589 -0.006458559098989718 -0.03404255041394441 -0.04422653819187852 0.02907253824559664 -0.004545045458742938 -0.00917179181639817 0.03426657898268529 -0.02701528753171215 -0.05308169601487021 -0.003178605126763415 0.006716227640886799 -0.01466840562328978 -0.06018897001587524 -0.07521479292480338 0.02189256563770054 -0.0987390984005258 -0.04042855461005328 -0.003239955934789544 -0.04204343326339027 -0.05961685424173058 -0.09867314800314167 -0.08851288388868871 -0.04841154169028226 -0.04145564104697804 0.01585219587737906 -0.006548215204151608 0.06978125900140679 0.03429151067909896 0.03360352118564627 0.1576877386823304 -0.01489443508705229 -0.08987934692168578 -0.01040126294726304 -0.03914731237947548 -0.1018859564022782 -0.003105886463708157 -0.01622157792553086 0.08878605907230755 0.006456202239589453 0.005150441402167083 -0.008594398008421014 0.01399138011441102 0.03296126256285183 0.1436051822831613 -0.0176429031317615 0.01531707569917885 0.0587201296292003 0.1005831611264748 0.0279887784698865 0.01759212894906158 -0.1467374223723699 0.02731246895089408 0.02687758309454456 -0.02622865968667991 -0.1067993441917604 0.03228104762451822 -0.03039853766122626 -0.0136542428857689 0.04126143274371324 0.02800079841838332 0.04069237601774094 -0.01771543626584444 0.02620932083439906 -0.05809103848190983 0.0132596520077454 -0.03287377652820069 -0.004797374946027031 0.0190151470331656 0.142121424317379 -0.02502793398698453 -0.1554899256278608 -0.04584443498016832 -0.05628205160671085 -0.004547705999898122 -0.02226260953222153 -0.01055206291489264 -0.05751520853735698 -0.03883067850095576 -0.01338994232937494 -0.01093958358531304 -0.04232740963897542 0.04683900604454032 0.02018626789515068 0.07362724173784861 0.02491305898745476 0.01799944209368112 0.01254614076382657 0.05882324893344629 -0.1032089366185891 0.01911420658333128 0.07444191669432225 0.0222258738417037 -0.00483431356951487 -0.03238851603935175 -0.03486204382466593 -0.07123607404166049 0.03517594823716093 -0.04342979421544888 -0.03636869460583962 0.00784625322989318 -0.1064670126380067 -0.08466210807542138 0.009216217793790456 -0.09404592239672607 -0.02381417364461689 -0.0198286253495934 -0.008212714940016283 -0.07132625247542598 0.001507604740718772 -0.00514911172798841 0.06470543978852328 0.01741261612240917 -0.07394370621173851 0.04868830903250414 0.04415650833455056 -0.01115910323902964 0.03444373406703016 -0.0203025102806364 0.02796012820480608 -0.01958054619692294 -0.04728580550183741 -0.002446138520216705 -0.08102581044206628 -0.0254409649392818 0.04567244378275612 -0.01197322692618837 0.0766467648291151 -0.1032938441347331 -0.06826881880494895 0.09921133491696414 0.007608526128646902 -0.02161544872674509 0.01104152989343181 0.005133318768204912 -0.002337066857073943 0.04138765688506728 0.01593539371255506 -0.002092444744972261 -0.01734918486299586 -0.0685918630483575 0.0153994216495234 0.01807214920185756 -0.02833294867019966 -0.1301657898044572 -0.04583282576745885 -0.03501910696107357 -0.006705486159077719 0.01857772835907474 0.03601153659061812 -0.03950682584568202 -0.07616068955151845 -0.1033270670591585 0.01961705328185322 0.02466968761412814 0.01496553044702752 -0.07948106293598055 -0.002188062236266755 -0.1155373517008641 -0.02000834153534157 -0.04212115924000521 -0.009189134641333894 0.0299362778247637 0.0283607693449109 -0.008471256637243359 0.03008945420699115 0.02193285625685751 0.03562257727444376 -0.03004249900099867 -0.002831323285082753 -0.005296455038503105 -0.04024061956307501 -0.05718616571694148 0.132887379424148 0.008985898559170138 -0.009012974037732487 -0.02608564600204837 -0.07096980493929701 -0.0272392231238211 -0.008484723705914592 -0.04552796125878875 -0.08105699571625613 0.07936059973489888 0.03110243098764423 -0.05386003934135481 0.01054147183739618 -0.0400060805304899 0.001525529311974339 -0.005002453268125946 -0.004836403377801317 -0.02674549948552351 0.06874653887971975 -0.07811403944435891 0.01528149165140689 -0.002216468805586334 -0.005000118510766765 0.01002850112320084 -0.04327060912005415 0.01016762014335558 0.03917066978356562 0.002714886443423847 -0.1026265069146138 -0.07298475871842128 0.05069743500646555 -0.02936050416886742
 0.09338349458209065 0.005224506941998694 -0.02654605787500499 0.02513592184252118 0.01418384394959074 0.00407948450116514 -0.02603801331673975 -0.01325539230750633 0.002642710217489387 -0.0104833072939866 -0.008870157584623992 -0.01891131448788014 0.04140782715559531 -0.03690475991630097 -0.01818073417319785 0.01424707606710394 0.01354790958167677 -0.0008211691088357056 -0.007718214093784159 -0.004186945523335806 0.03677913488239573 -0.05842484380782601 -0.01128135490767625 0.02310598192359152 0.02953930154000715 -0.01873965317989061 -0.001857176213313856 -0.005674831947117463 0.0300760973184647 0.01482790877854893 -0.009768951727625885 -0.01056921185755752 0.008396332421110576 0.0009489902463287817 -0.001056940761447893 0.0339342436118818 -0.02021452558891062 0.01205528984828217 -0.01573880095511262 -0.003496895309924131 -0.009366222590888642 -0.04397793417470641 -0.0155207075305629 0.02967678987696165 0.04159869831407546 0.01638706296788864 -0.01709385411590686 -0.01886069526485449 -0.01879535409084306 -0.01858530048080635 0.008507239760854971 0.007865700384881422 -0.03216424867585752 -0.01502196179378938 0.01927973040766055 -0.02826765676323255 -0.02838671478562402 -0.02926601756729047 0.03821410261107396 0.01765489245001433 -0.0276314525048334 0.01459981785052965 0.003118204807410994 -0.02051511754381539 -0.03596394060433802 -0.01113927006543195 0.01209180068372432 0.0232514209357707 0.003686860941736919 0.03436531325991499 -0.01475265308831346 0.008394339748837928 -0.0223138355205392 -0.01777082065446856 -0.0117616256835024 0.02055499787194572 0.005195714120770277 -0.004043323499062228 0.01430766572317778 0.03187525390994427 -0.01991918046654154 -0.04911667342732198 0.009157685212509481 -0.008164330605648366 0.02317307396993612 0.03713931851242452 -0.04324223060046357 -0.02536871616380169 0.02339834033225406 -0.01872175295105863 0.0051150103288655 -0.01026236823538383 0.02475341549490543 0.02491747861324512 0.04636047500033406 0.02093427319517666 -0.03420412125336019 0.006457076071926656 -0.02372176746473271 -0.004162853216763817 -0.002624252814082914 0.02581377757265564 -0.01249325903128904 -0.01599549180917201 0.001193780698919131 -0.004260033073805845 0.03647384395451848 0.009359238073579306 0.00845150880285528 0.03463704376788705 -0.005420896285260366 -0.01947745601248085 -0.04315258711810473 -0.008625333614462981 0.03722963547595826 -0.02795828727706156 -0.04547141044966688 -0.02032668614825064 0.02875702709472396 -0.03919061629181926 -0.01343547973028663 -0.01982093159335137 -0.03096466261827026 -0.01599694543560498 0.005605292773795918 0.01151769558492144 -0.02892766546192496 0.001220879700622896 -0.01120200602687615 0.04700696613791176 -0.04684131895754451 -0.001325070511617159 -0.02501338038561229 -0.01799253945572549 0.01000416097019698 -0.03485380820969414 -0.02979416977913125 0.007679263223585841 0.00684031525442363 0.01720950374545991 -0.04566597510556896 0.008316390300930039 -0.04589114528217501 0.001576767363420841 0.02791922298406598 -0.008418759489530261 0.01970447405862095 -0.0003377883326225433 -0.004089033269229183 0.03746063984453486 -0.01224979067259973 0.01464321886281739 0.003896166361089084 -0.01959719992291118 -0.01199685606472695 -0.007824799661034745 0.02587157207593823 0.004736458752779889 0.008256299988222641 -0.004983852447375012 0.04122631719201447 -0.02812308124302457 -0.01227210682914923 0.03339545385293462 -0.01528325570893459 0.01409799975147126 -0.04348617738786568 -0.05065426160424076 0.001100662518333956 0.00947261924331807 0.01768471384170379 -0.0252976921925401 0.0252441498373864 -0.002358984413507081 -0.01004412671597071 -0.01678934992705333 0.004745998743033356 0.02987491003108515 -0.02051378594463199 -0.02830525736445568 -0.02062035115781931 -0.01655459417784448 0.01410692987826172 0.02756883425454335 -0.003432775378097554 -0.0185013072570403 -0.01595744961751313 -0.02412903950067558 -0.01851958096601024 0.03850960106193605 -0.01602857308333618 0.01236675127385707 -0.01372134705405748 -0.02457055812521398 0.0153619025117977 0.01426205330771741 0.02018397284840464 0.003397754466776468 0.05737477334954599 -0.02321325314624739 0.0196958557245553 0.02228029708127461 -0.01029449926171322 -0.006337407320429887 0.004248676384303133 0.02269170316363167 -0.03935868674659382 -0.03957313404674261 0.02949227409549741 -0.01513165042239718 0.001053913765405443 -0.02404741114508597 0.001995940907770785 0.00493120486486761 0.01011077195682418 0.004643628187020746 -0.003900479199620952 0.02784777729622026 -0.03815533563375876 0.01866550123484871 -0.01644775456697302 -0.0182092428939299 -0.02388017237611097 -0.0193384522676997 0.01778718436062578 -0.02404065440957782 -0.0006483130907877161 -0.06154173677341172 0.02727211320476758 -0.02593454958311714 -0.02666161615486105 -0.009018495050878891 -0.01658657926075886 -0.00825698902783833 -0.05226890943539011 -0.01299447225691242 -0.01247473756411558 0.01971319023425937 -0.009388124415515141 0.05795918634712394 0.01912523810961726 0.02272575536092457 -0.02291191995840812 -0.008394275584662799 0.02111084388329765 0.03150458688678982 0.004396915565596457 0.01008689860640238 -0.004178649198749227 0.073044665436225 -0.008746764038887142
 0.1634393272560377 -0.06206578479453809 0.0309986950016335 0.1221301648012426 -0.02880968609122579 0.1364897627051571 -0.1946538899637196 0.1643460996911281 -0.02240770427665449 0.1732044068778899 0.09976627490977524 -0.1423795564967319 -0.327842454701403 0.1098188997336383 0.1071031369242377 0.1974688534301664 0.2791991308737947 -0.09150214791051121 -0.1482896162861297 -0.02678531684867411 0.1797887434708476 -0.09212016457217924 -0.1405347328125757 0.02322518598478687 -0.2632759276519189 -0.08411531118281244 0.1545760086367065 0.5400910693634411 0.1159111469591226 -0.07477400397869882 0.4052596774140766 -0.1152961293311226 0.2368854783532845 -0.27749200742775 0.09442114495836157 -0.08355824498088794 0.106432635474463 0.006302419679927966 -0.2041656450148163 0.06388082189499196 0.2173039394492717 -0.1097698982974865 -0.09851858652378423 0.07523047529266541 0.1846514458938338 -0.04128614670250788 -0.1471603369623308 0.07644807786943304 0.1534845524020842 0.2445774366031291 -0.02995990893706605 -0.0922679757072192 -0.09363890061001784 0.1651759918803269 -0.04815037706518133 -0.08806929960485441 -0.06350914177817979 -0.1243650234062123 -0.02879784114743709 0.04651963007089125 -0.09152044316376205 -0.02110741759775889 0.1597730960329307 -0.04569605587578385 0.06259454481437814 0.4815905120899147 -0.1487954267291918 -0.1048285293896785 -0.1063567066340202 0.4696352965160228 -0.2215598583183571 0.4418329592341699 0.01751098160966174 -0.0258176047851226 -0.3217553453661045 0.2449723433696394 0.3029146277914912 0.6634343383754574 0.2846194100311717 -0.04868124710475023 0.1411202128475594 -0.2915510830451111 0.2488605097851603 0.5034054381005224 0.4199779527914663 0.1730951365349634 0.07234759734589336 0.00349232971614326 0.1832911352182749 -0.3524589088792764 -0.3076174063735219 0.03171098713750919 0.1923230524198611 0.2501760740819037 0.1924165525964875 0.002031413109862359 -0.31958542431385 -0.3322401129803955 0.3159523926518319 0.01676443961494413 0.01493432417210763 -0.3473100791183213 0.2432511559060354 -0.09677664265088901 0.3436469536853303 0.178894988009827 0.4389845010058557 0.24100185286443 0.1539407269776005 -0.0388407517451656 0.210691448968984 -0.2039041498766294 -0.04023799792169343 0.06086179138886642 -0.1170062874284041 -0.3315657335492919 -0.1493269687839081 -0.01085742973786209 0.2197949384260022 0.1216143389270168 0.06013579848298417 -0.04134161225982043 0.1170239611387431 -0.164118484406776 0.03040852507604946 0.03929456553240152 0.1732760957048711 -0.2629875580201265 -0.04193177937825613 0.1143009547505988 0.2985102780700734 0.06118067801347996 -0.1322011459426787 0.3716347183723253 -0.428366680895613 0.3388683943945477 -0.1378143880488404 -0.04663958845848427 0.07998753710742099 0.2428952748698595 -0.1836272480200969 0.0471922675075784 0.080058923329678 -0.2902864146126145 0.3672794083210019 -0.09453979518692249 0.01608356582374501 0.1265731100609769 -0.0239884625351344 0.3792222664286763 0.2020427313694509 0.0107757928538563 0.1114903805134325 0.09626703636995047 -0.00738073996938006 -0.03355544880589326 0.0456321539837248 0.9175172220721426 0.4287631573857215 -0.02390994093903557 0.3722807375712384 0.1309783106498503 -0.03161384601636295 0.145092845525482 0.3610230740458893 0.2317662541159658 -0.1035685982361631 0.2922889270316243 -0.6936837507209989 -0.1571924667027833 0.06904368361297619 -0.298684610205569 0.0105965876603197 0.2969441953484225 0.1549088804669855 -0.0347910712675253 0.06709065038143407 0.05066494611077549 0.2271466258191357 -0.1610147628762956 0.07010607017376293 -0.1795710558962587 -0.2639636876945871 -0.6032121312796341 0.1622282758614662 -0.08894708989381087 -0.2634413679823824 -0.09165965300668534 -0.398237041445023 0.4020957642034126 -0.2456924538165048 -0.2589999413470516 -0.199868103434295 -0.06175902549052324 0.1525871005870426 -0.1834289721252492 0.08536513458257659 0.06853325585190069 -0.2846140489437952 -0.064596297309529 -0.03065279311941294 0.5101837099359804 -0.02900582939757202 -0.2165751473738775 0.4444065054746158 0.1715717790195874 0.3567210230780208 -0.2697270582631374 0.1927755573065931 0.06008797904467227 0.1165572480613038 0.4568278178111064 0.189804695327191 0.1619786488565695 -0.1065474187192742 -0.06194424301595122 -0.1451552392776388 0.02802817510794964 -0.02628007064463035 0.310549400583102 0.06928044786109303 0.09971397990655974 -0.2361729876216358 0.001877853304924609 0.08443043954201206 0.09523981316839945 -0.0992732858197501 -0.3035967651080875 -0.1353375446497604 0.09909414115363746 -0.1840256935126515 0.04435082301069902 0.07681574854346765 0.03041043056926996 -0.4900358955449949 0.2159235100223507 0.1234732044585008 -0.07318702759832854 0.1882212256992021 0.351141600892707 0.08434985777445612 0.08509983124220341 0.1844557662608711 0.06807438522960275 0.008877436725704272 0.1590579999350145 0.1493732741891611 -0.1692341593491666 -0.5331376878988876 0.2955856751388665 -0.3415957994375383
 -0.1610549639236446 -0.02230931418620052 -0.3922662867921568 -0.1454057369204211 -0.2033495277603187 -0.01241256667395225 -0.1108614281436707 -0.1362772054194705 0.1612223588879357 -0.07417377743126545 0.008960657163240822 0.169665455146927 0.1721513669251359 0.4538591960352974 -0.1850580556936749 -0.1777685649869713 -0.1227833778574561 0.006844099312769907 0.1330109982934156 -0.02948530963176424 0.03020850350633439 0.2115165573384572 0.126449615487854 0.02627582698502761 -0.235702855610267 -0.211524284940001 -0.04417820044716817 0.0269544257295384 0.05139929290231914 0.2004840308311102 -0.07228685737458225 0.2374336758355023 0.004148548831856285 0.02820604632152043 -0.297395598558915 -0.2565785550965135 -0.06386942120108649 -0.0913637473253049 -0.2278067173635791 0.03333582782165757 -0.1822076563273468 -0.1226484293886356 -0.2491977265127708 -0.1133101399137809 0.08242783779403844 -0.02734944442519685 -0.09149556686289963 -0.01021738877775488 0.1271825380631088 0.1124635477610129 -0.003288661492887356 -0.01192713200993257 -0.1239265182149488 0.07553635644307918 0.01226067805473445 0.01038518580544411 0.06275968516457621 0.1426214230494561 -0.03908683400442923 0.01728282689486449 -0.1025647321911675 0.2411433738171103 -0.3901983577438798 -0.01092117412955523 -0.04610498057346551 0.2330857221255853 -0.03758359596284117 0.2012662215573538 0.1869012101378754 -0.09689500987931132 -0.1444188655523138 -0.1155565928055992 -0.003873085887071576 0.0005415451638028247 -0.1908866912202018 -0.09640522916664951 -0.1264650283121274 0.1961504154959868 -0.2975304467243728 -0.3431377882047467 0.001576562856860277 -0.07423182888073822 0.1378568689884523 -0.1769335708013986 -0.2058916849319112 -0.1494620300197909 -0.1461963969401963 -0.006189590519135349 -0.08328042441878712 0.1924402859113488 -0.3272397653022902 -0.06717035099777162 -0.04232241123721912 -0.04457968925537899 0.1394383918135987 -0.2724872861917419 0.3055462830024617 0.06362576757262629 -0.3995506330024247 -0.02225249910500665 -0.1838890084825261 0.5594361588179798 -0.3203116129424604 -0.1168737893690136 0.3221542941048945 -0.1032495698015968 0.1697474564187868 -0.1312239739921942 -0.07849233263245149 -0.1911623291832284 -0.03082167133363293 0.1224015746188073 -0.3201455511852103 -0.1211446163301102 0.1465626301217777 0.5512980778057751 -0.2439065098520813 0.1619301277943287 0.2989718582389057 -0.2134792511754279 0.01178595273011431 -0.01195308023944992 -0.1041657583749437 -0.208862440158938 -0.04054780807091547 -0.2935137160168542 -0.2216136364451432 0.2622759523811382 0.1347024955046906 -0.05902603473245396 0.1373439835076646 -0.0004498083528874837 -0.2936409635347197 -0.3826126859686633 -0.06456944177528701 -0.08506321230745778 -0.1631532917373828 0.1994999659352601 -0.2421463251441396 -0.0596084134448568 -0.06216310648986517 -0.2917631003232711 0.3871103607291962 0.1142011964805892 -0.09877776660511951 0.01442756103203302 0.09096645798699142 -0.2432376257092377 -0.09585263586861155 -0.1661839737438557 -0.004969967026180519 -0.06377854564556497 0.001826118017853989 -0.05994363918980359 -0.005281056883341923 0.1031182104156688 0.009000595147885537 -0.4450822708942928 -0.02196633069584854 -0.3094528723178886 -0.1122348890574105 -0.07506991726361539 -0.07627406117969074 0.06019020436381841 0.22483932064306 -0.07160217240657217 -0.2379047530982671 -0.258017844505958 0.1763701886600558 -0.1158962768610562 -0.05348356758018022 0.07823910680779404 0.1661117201303314 -0.2800697365060563 -0.2757056297506112 0.1203718958776662 -0.1983940469942509 -0.007748888815645221 -0.03531807001031651 0.0709423299829202 -0.1929966851867286 -0.05754473926230792 -0.1019454508618222 0.08101281055232323 -0.2503781368748414 -0.2632158502953317 -0.04070723234817577 -0.1073577640291512 0.06130276204377175 -0.04104678095419038 0.1559118847085706 0.1736927055448121 -0.02951345080022826 0.08359431806520858 0.08546596790878369 0.1069969061012388 0.01047456436768347 -0.03487240711357721 -0.4477043635987383 0.07546806841184892 -0.1887849903619662 0.08205460240345071 -0.183456409792216 -0.04057600079366503 0.239554402803736 0.1317799189368203 0.02748268381189728 -0.1533257764236512 0.003207108340540657 0.102091042653509 -0.05896126858870718 -0.05751432647634384 -0.118408536453364 -0.09203375200336242 0.138305756687937 0.1082547769381834 0.07977855555858246 -0.1784505828936147 0.07692664327211016 0.3730840944993031 -0.04426779963476873 0.06179255153372082 0.01164165465704718 0.04901069751183203 -0.05777482061181166 -0.08525139110922467 0.0539656382528945 -0.1629863023480537 0.4795929495374561 0.03398676554824048 0.09509065709883469 -0.05039399183141705 0.07020290147144856 -0.01982510106385659 0.03946410399418688 -0.0425083738613058 0.07806657047606279 -0.04444485299794302 -0.02824642216155346 0.01956116684981304 0.07042606254293948 -0.1062082961429409 -0.09799346297874009 0.05595144167328674 -0.01236038102420445 0.05645230292208348 0.006512462600678689 -0.4755792148102 -0.00516909351657655 0.006798324957201988 0.3471715636552943
 0.015322988151396 -0.05159887334578822 0.02344823733368501 0.03228330050504116 -0.0212978765006543 0.01670793560482165 0.01884403685789885 -0.08011904163920053 -0.04888893507529454 -0.006453251520692791 0.0738576330383648 -0.01158934202009203 -0.09790060497627842 -0.07265322635583558 0.02597376065625221 0.04943305803278902 -0.04840849087395742 -0.02509062746731996 -0.03503546419806161 -0.03893816575893829 0.02929317841104252 0.01751878549511195 -0.02305197094647935 0.01759390542786993 0.007420970765787994 -0.02309562542447494 0.04531028118960471 0.01297455365328322 0.03856741619398304 -0.02566392562388623 -0.08246995312513401 -0.03949809269424746 0.0006288735263358065 0.08002270662104345 -0.04076330762920477 -0.04052939147819735 0.03753619068149178 -0.05887147511021148 0.009644934228207943 -0.04221401287869769 -0.1312690678195721 -0.1561395131088192 0.002611886703227408 0.009362366987325163 0.02427717855595625 0.0511783843395178 0.1015694660284991 -0.009801274959080593 -0.03650974876618234 -0.05799210580035716 0.02750679909006547 -0.01144649007050342 -0.003681827921958571 0.01162655771881123 -0.04755298906654054 -0.0490351648136416 -0.0005929506943574565 -0.04533110208749558 -0.007224421498214892 0.001857347363612312 -0.1468687304359172 -0.0654107042393834 0.006776815595471187 -0.06435576615839787 -0.04577607026016729 -0.0588259222432668 0.02900711249122386 -0.05922153247144563 -0.03279252368404655 0.08436346329752605 0.05274954938277207 0.04994263558424206 -0.008166873014519469 -0.06144454734981554 0.01176751105325799 -0.01242253863162986 -0.001554824055683166 0.05393622140024039 -0.04581313718704941 0.09062998206075279 0.002421413943092283 -0.04602148541693593 0.05812383343142472 0.04054457005167041 0.05892755829026036 -0.07704756226740528 0.01007380322030352 -0.03146611373306776 0.05458631780645411 0.008219836927387295 0.08545506948192676 -0.003757528568217878 -0.01954024560576742 0.03705188454116827 -0.0004968253508552435 -0.02033920234228508 0.07853238750440161 -0.005393751539479397 -0.1197189300027229 0.01316711320707342 -0.03733131808582056 0.1281869524591312 -0.06723740206899709 -0.05165438103938879 0.02246329562345236 -0.03968751535265601 0.09621615788771354 0.028267348015665 -0.05222043509385811 0.005988989229831005 -0.01060219438477551 0.01753677575843246 -0.09588984969451318 0.04972234291044964 0.01774497297805282 -0.161237740358715 0.03675819349202795 -0.03137627554538978 0.03900906656021833 -0.0409043171656888 -0.0009383779412187481 -0.02171455226101205 -0.01346918871222853 0.03383139342248313 -0.03922693650178186 -0.01242776773374186 -0.05836992659997813 -0.03992283154496835 -0.05237607900654965 0.05197562374224654 -0.1367053830299901 -0.04556582872896725 -0.02844255384941353 -0.04250944196582981 0.01834757897683407 -0.108855037627954 -0.04972754796829285 0.004402018013536299 -0.01174353351771304 0.05585482586490226 -0.05203186137737544 -0.01385525972056285 0.05244758098827729 0.004568002986422115 0.03509680812458082 -0.02779846514817201 0.01228988520567861 0.09163881242075209 -0.07878376131446667 -0.03635941279496471 0.03805085298304622 -0.0174702138318158 0.002938441871729054 -0.01844427227035215 -0.01518592039548492 -0.03605595385513513 0.02835887159670111 0.03820497484150268 0.0115203474411338 0.04511465547739659 0.03799884708132551 0.05633196835108019 0.03254019037952809 0.05747084075052432 0.005175027454777225 -0.03548418941130755 0.0251779292145392 -0.01096891138122082 -0.002518846346155811 0.02728082299202358 0.01330491450253923 -0.05565961052183939 0.0008813531232382988 0.05268591797778079 -0.05236474384999837 0.04917107406996934 0.0003909995168668525 0.007260022238115255 -0.02408682013365418 -0.003464456039216521 0.01085366191027534 0.0195387869182439 -0.0243167786187054 0.001347225272129563 -0.05578420050464129 0.1081158883150773 0.008446511504050026 -0.08428744218834543 -0.09679165007797717 -0.04448158932079288 -0.0709798718175976 -0.0387971051457797 0.06815625591495661 -0.02909176894516202 0.07265478012162667 -0.10672575416519 -0.02325475300513558 -0.01636087469904974 0.1265889996870581 0.05057421797339506 -0.02565550935801547 0.05493200714123948 -0.02540055154792108 0.003088097287971565 -0.02000208857085644 0.01996187034477138 0.003051441229867762 0.03876180340933755 0.01159398387510008 0.001116172001148789 -0.02857626746112848 -0.09553468610017828 0.01806112560356955 -0.05664481645034765 -0.037617134270849 -0.02060619369521252 -0.05934928254244469 0.03657439098594105 -0.007123580510740041 0.09261804817197559 -0.001934260977554422 -0.0206038929572471 -0.0294133287345303 0.01549544367735773 -0.01988485176893028 -0.02632450532968208 -0.0038889357510505 -0.01522759171504894 -0.01882503154459102 0.05347177849944611 0.006643445536677031 -0.05967417883156928 -0.07096321900517999 -0.00650133757942708 -0.01434367435687206 -0.002433712805398368 0.03101551040725486 -0.0441301321872007 0.01978117809075548 0.03191703703058409 -0.04194293542872279 0.002917095551885532 0.0100036013745997 -0.06998482451901282 0.05278308043637078 -0.0008844810248379385 0.05245185204344475 -0.06268323941686849 0.06582929909339513 0.05301043922815752 0.1538530246036885
 0.0497605566049715 0.1123711896063506 -0.07648132734116256 0.1504707774643249 0.03436129085868864 0.1280754972760304 -0.1953476879205692 -0.09050625337276348 0.1661173328724804 0.01540830540997661 -0.08416387551052747 -0.02248275367596016 -0.2505264619561193 -0.5076240081533248 -0.2496049650218725 -0.2778163761580759 0.163057778936073 -0.02538008786366098 -0.1075741848990491 0.03278599801452006 0.1862101265258233 0.2002572761328642 -0.1716120932518162 0.01010972364003148 -0.1545429798753558 -0.1060097438277666 0.03846586694450898 0.1233485927391728 0.07051018586086422 0.1236471978064725 0.491238976789163 0.01108647829414879 0.2206925788747 0.1006651345438923 -0.0550547293493215 0.1039368276778204 -0.1611389383011803 0.1755475494970162 -0.01507050301701465 -0.0467702953738332 -0.06437701985645447 -0.3630529892959034 0.056764637706891 -0.07671245520503858 -0.02246705611717426 -0.08399696726004188 0.1801459382074134 -0.0005891594583468075 -0.08882856843190647 0.05075124586521939 0.1797869371946897 -0.05260940475695219 -0.08404506273026166 0.1419382079621454 0.1322028769635502 -0.08656067927393464 0.008524280024879821 0.02028982657321952 -0.03596916200257367 0.1149850297215811 -0.04387005599969677 0.05817768404301954 0.02614611132302835 -0.08914532770724379 0.07870454620105465 0.1353409257928024 -0.1866334164205259 -0.01348857973023229 -0.09251033813461931 0.04951286642954613 0.1255964386645002 0.2833876501118185 0.01944037323314505 0.1549887484083525 0.0348977080124049 0.1268217038916448 0.02326177364002708 -0.2455643093848542 -0.04570383686941962 -0.1208185679998739 0.3160661681153382 -0.1050221081652011 -0.1383382572303656 0.04558589819274147 0.08737165087807039 -0.009476790789374136 -0.08333362997159087 -0.0300530925502621 0.1412855017367808 0.3070660483172095 0.2434763319797788 -0.01472614993357164 0.05018982496917522 0.2124906882312954 0.08158779181956423 0.1283193868465816 -0.1011812284496277 0.3194109962419123 -0.1139588832986082 0.03527815876578963 0.09503170235605365 -0.1945462273998668 -0.402438591842547 0.08896735442262435 -0.06606765337170138 -0.009065563261034783 0.08230710038333093 0.2129566628914238 0.1620765442328972 -0.01557478067715963 0.1607375087769899 -0.02932159131154573 0.3138321364908641 0.04023127814066019 0.02962788620263053 0.04858603095694639 -0.01989164718497578 -0.1845370355518236 0.2611638058881387 0.09541851293789853 -0.02417975915099028 -0.06482592432574913 -0.06817864708955033 -0.09588786698643538 -0.03773838706295593 -0.192309681103365 0.04355600625148646 -0.2072307001893399 -0.08669045322141496 0.1025706942372809 0.00279074567165488 -0.03309695260942051 0.07608439710384304 -0.1227584378845416 -0.1574455533371069 0.1401617799127475 -0.003862672509842876 -0.07911350588689138 0.00412551649661145 0.2365528317813607 -0.08297852341843559 -0.1766183293158697 -0.1097162682143651 0.0005964498479339947 0.1774564040526714 -0.01612968953626808 -0.02929749926310215 -0.1917694816007533 0.3489515172617415 0.09606893248460105 0.01789386909817873 -0.01598333351008981 0.1366569861797982 -0.1507826123950696 -0.2968058557586641 -0.04863405403190871 0.04089327581581605 0.0166088559318564 0.3879133223221739 -0.03009454763987712 0.3001966999906375 -0.1377253065547359 -0.002070234550190152 0.2414788853423234 0.1807998344511471 0.07439292475095226 -0.08421292776809527 -0.140991745764171 0.05840554273377456 -0.108090382831055 0.03186645401606646 0.1034813506916581 -0.04785500395292792 0.01168284907968503 -0.1542519361199385 0.3206575884076977 -0.2866958828670399 0.2920009662402378 0.05574558200920395 -0.01859872413766083 -0.04142914209204016 -0.03013250907186575 0.143737291757881 0.2916568047059807 -0.007979066482797555 0.02949498978627946 -0.2900358678689696 0.3032582005011401 -0.01646237496885198 0.1225875008800082 -0.2585897809868751 -0.2224440218801622 0.1034522261994258 0.01184055106544818 0.1878531889270941 -0.1139025822648152 -0.02259789309536001 0.09655725200225061 0.02973937956703964 0.04216630927235608 0.2120935778637994 -0.06276414121946568 0.04542952257747431 -0.1370603101718798 0.09252215760053395 0.04832158448277513 0.01128322042884813 0.06110706940419341 0.1000980847374075 0.1149831906607929 -0.05880902338961598 -0.08402034353348942 0.1643842492987999 0.2076885693104343 -0.09816680678947289 0.01560884428723796 -0.0004533500971021194 0.0002650252027105219 0.09360048583724244 -0.03875423143090707 0.02863926946108454 0.01545171211914065 -0.150116401936262 -0.005760588903893122 0.0468990181858287 0.05027776322953965 0.07675462547941722 -0.2881846528682221 0.3328419503879731 -0.1281708608676173 -0.1459531383491313 -0.02960404025060649 -0.06030348100185116 0.04475807284098499 -0.2354602274857233 -0.1092494776774262 0.143326154535328 0.3202903223957155 0.01473208944649628 0.2147945746127169 0.09556907457570143 0.1870508309318081 0.1119926891232354 0.1962907253387302 0.1785915901107504 0.240177068240709 0.01161716976699107 0.06457625587984057 -0.1161691014879398 0.3444004162255254 0.1065131234236038
 0.0941784248507255 0.205528603788056 0.1994312257960134 0.1074339964311311 0.106960262510563 0.01995160697190945 -0.02889616526977423 -0.147518146447854 0.04331654270039807 -0.009269217985713819 0.1354540955171435 -0.01719417170439239 -0.3979789034677532 0.2742841867326075 0.1123476021501149 0.187425998351153 -0.494302946214287 0.03202305847523704 -0.1764607622527804 0.0364662425384242 0.01736751158591491 -0.08588427768002437 -0.05246267585422625 0.01098800964338529 0.08388957125509283 0.02890335250010111 -0.1061871679464298 0.01163823914169719 -0.02883368610506543 -0.08220025335323997 0.1948218177227527 -0.2407832540119136 -0.02224678153477863 -0.2360446111209584 -0.02726832271327818 0.1232319777901703 0.09311717228022712 -0.04305224070824259 -0.00772577476176418 0.06203962075443924 -0.03895054148964654 0.3176848596273243 0.02121831151160625 0.1008004963721014 -0.007848769038258598 -0.1145328591887166 0.1349259475630465 0.04611176262605968 -0.08877236896218133 0.1279905715582756 -0.08557976017982702 0.002955376555865402 0.08563938907473931 -0.1783317670899768 0.2507218264201901 -0.0735635826254528 -0.1202969544203454 0.004329470074611846 -0.2090237488946325 -0.1838150661843488 0.01464724038172202 -0.1644128436501801 -0.1154344759669295 -0.02669295658914398 -0.008122436185104092 0.0275113650730189 0.199754904256754 0.008240610321259636 -0.03053981685552265 -0.01108974769127582 -0.1073278657570456 0.007536519722443615 -0.02046893156538242 -0.2139968854098583 -0.1441759504811468 0.07855826052522975 -0.1721228839207559 -0.08749923308990412 -0.1031887774338255 -0.06074480785141395 0.2387459899307877 0.1018263191411492 -0.1301474447252105 0.07530817000478589 -0.2272996153250769 -0.1933426599972808 0.1065629180151118 0.04202984631638097 0.06270413097437703 -0.1972155342851002 -0.4291153493101018 0.005311305831052953 0.03235936927250162 0.2004352074923773 0.09512880616610497 0.1720213377581423 -0.09550580020228196 0.1112975433791251 0.1736433101242025 -0.001438396090028349 0.04247608055789315 -0.5273361900667453 -0.1545193536697229 -0.07201877162460774 -0.08471826202473225 0.1037584705957834 0.1654781231508957 0.1107845631291702 0.004498435632885416 0.04386991463619046 0.4017848523701851 -0.1907687150632685 0.1432516964553913 0.1086730411557023 -0.175483453548599 0.1262644181045229 0.2489366469320454 0.4017518024915622 0.06038456574002538 -0.051476391141213 -0.0195318815896868 0.003330109158730897 -0.07538256143807091 0.01004739296313338 -0.01230572226077686 0.1451529918913547 -0.04059266564360713 -0.2775884338097779 0.09457123630350522 0.1212299048581253 -0.07889432492641107 0.001042408744436376 -0.07203344471196582 0.1006622816100288 0.1741868183496955 0.3069910617476342 0.08460087337053748 -0.05652753484308624 0.1774700659795825 -0.1229565448774508 0.03403278192930074 -0.06274650215135584 -0.2055371675930384 0.11523018119005 -0.05835405775683049 -0.02993734331604769 -0.1584003775583233 -0.1789271229100091 -0.08018713983956532 0.02654370603362302 0.04090241448488029 -0.006897347972127332 -0.04007219844559522 -0.1127253874823902 0.01732708538266945 0.03287455043540679 -0.006848682845627343 -0.3048261823467119 0.03272436120266311 -0.09359247125137163 0.009553284453353253 -0.11735578195287 0.0278608033637819 0.03684364668154304 -0.04686759372855138 -0.02456851366510237 0.1203868790844422 -0.03683596995320406 0.1010992842121995 -0.02889642251768878 0.03273447259686815 0.03275814245999791 -0.004615082950443754 0.1621191471917087 0.08311126391978886 0.0690156287444029 0.04714795383796474 -0.07714862916150061 -0.1035608883786788 0.09326223630816187 0.119710349689658 -0.0278673729824659 0.05451640125535793 -0.1275912106284961 0.05208888084626574 0.07714214968301036 -0.1469183623561471 -0.11379627454011 0.2766545635760852 0.152671739175032 -0.2086564358480709 0.06914101949223747 -0.271738217940616 -0.05056218031739663 0.04114560277920865 0.03509148246726147 0.01657260651769144 0.03798898147028591 -0.5925076453978345 -0.00204152078475358 -0.3202854307988491 -0.3149698173874307 -0.02310263004781727 0.01820263530490744 0.1126434607538833 -0.1344730572278373 -0.008111379540343749 -0.1105982868522609 -0.04797326432140081 -0.07865619366531798 0.01652092885280952 0.3667288624893183 0.2186137030072292 -0.2212383137411404 -0.1244467745102334 -0.06584709824886822 0.2402709596350321 -0.04736798173214653 0.06170596238316652 -0.3006822503493037 0.03717547714535304 -0.08434591086517779 -0.1330488858353889 0.3044103472840409 0.04141294635862322 0.05276894740685266 0.01503867627905234 0.07165487389402082 0.338995853511534 -0.1909501625375913 0.01072316964080674 0.07493565856890631 -0.146506195218823 0.0355895080807388 0.2361271694258005 0.03244029826669137 -0.06750582749230884 0.1260628129492503 0.006630983007153754 0.02346837565853641 -0.09339406338519696 0.06757045915443076 0.05052378278825156 0.1718525299072121 0.1241009844740418 -0.0860536669899342 0.04470058590744404 -0.08835047077473283 0.1010659535753814 0.0125889678496283 -0.2835488225615075
 0.03339593181431078 0.07200750047686207 -0.2994730036819782 0.012503138872661 -0.004870016052078948 0.08598569986103158 -0.195622424179084 -0.06285047115205111 0.09074524734910053 0.06834698669225622 -0.03640882746607483 -0.03913505619074895 0.1442029761619647 -0.0736463108870796 -0.06764852773740668 0.07793891353447963 -0.05928574820397728 -0.05351741856765927 0.01197598275221922 -0.1320064735001023 0.1120682342846687 0.2059329895279617 -0.05567579778619958 0.005275545302147863 0.02240978770122599 -0.09695097632326538 0.06624212743413417 0.06932802003922214 0.116811163266662 0.04734511456760528 -0.2025335252713632 0.2445656568072436 -0.04825707751378422 -0.04172448681433513 0.1280425638585957 0.1592311247257826 -0.07195956387951241 0.06611763662901544 -0.00294624753694647 -0.06840477122589614 -0.05714896429856337 -0.1059685146205313 -0.08087039576213438 0.2071204501505803 0.06248119413199949 0.09992793256156648 0.03501969360804964 -0.007787695267080862 0.1074874897721786 -0.06046351049812602 -0.04376453437969483 -0.05738315188081852 -0.0819602342511422 0.1062954948009111 0.03027689251968693 0.03184719502062827 0.07306970129192658 0.01407256049711609 0.3431784478506751 0.05429027283006025 -0.0765626502704705 0.207731861049059 0.1196208647977288 -0.03781174042454728 0.0118002594533763 -0.05120632900959444 -0.1318113446786543 -0.0724169232133631 -0.09733424754092455 -0.04303055634603398 0.08090076951304725 0.1015202696808414 -0.0101719796974741 0.06814404023192454 0.02741877548848319 0.08256435032036896 0.1187444242763821 -0.08349465263338281 -0.03394098514565089 0.05252695065571768 -0.1285566325036778 -0.08465882858391417 0.1106776572444374 -0.06446895415023696 0.04136335991824482 0.189781001685505 -0.05869570669046868 -0.03631155997537698 0.07193826146406454 -0.04720344150331022 0.008333848243694793 -0.03195733889936293 0.03835456620294441 0.1212540200201453 0.08493935228179883 0.1378273194613789 0.1522525160522191 0.06400669705582618 0.009012254904024738 0.02217927320529017 0.04922078354900081 -0.01450968719659237 0.009176736590487136 0.06036901366549021 0.1118032015571062 0.1590476049093272 -0.1656901137211211 -0.006777456931468489 0.009741487050620185 0.01761337860133154 -0.07284047144444077 0.01400729310519205 -0.1707478990689127 -0.04778789197424422 0.08091685836123165 -0.05693201422930792 -0.1338114304427725 -0.1046288226287462 0.09072291137053999 -0.0781673211630371 0.07776342427443793 -0.02687120322509311 0.04120353409269427 -0.154350011582751 -0.01639194684181663 -0.007440681820108186 -0.07568440201699084 0.1889545492187404 -0.02670108601279347 0.01083059392017549 0.07856753081211579 -0.01783745893440004 -0.1401607693241722 0.01645611277990866 -0.03157680965621202 0.05515923310487261 -0.05161495236973479 -0.008006195936492691 -0.1170037816170176 0.1013062710576207 -0.2056335648693615 -0.0586842568185752 -0.1642705140293878 0.05393889915912544 0.1815929360374878 -0.03251552175919358 0.2293582786742158 -0.04131420541131774 0.1231618912985011 0.1294884511969253 0.1278262874845538 -0.02211348058785316 0.0852767962888481 0.09769041443191318 -0.1835694998456792 -0.01465072713437287 0.01838077957388244 0.1135675482952269 0.1903087437361894 0.01300758146145191 0.1544705699224665 0.02128679919976107 -0.08319824008134072 0.09912519082580647 0.01877034479391642 -0.01399681638040335 -0.2608698667767052 -0.2759866699594489 -0.07534562312019037 -0.08401156444607415 0.02682039426326108 0.1340580295280659 -0.1183996853189498 -0.1867839770615932 -0.120153057997091 -0.1321580698856292 0.06827916450200187 0.05781173780740611 0.03085261880168459 -0.01574512088538332 -0.105925545130957 -0.1496461129128333 0.03044080021027702 0.07005244989787549 0.2458619515651827 -0.2497029944410347 -0.2273394704747928 -0.07602110672031272 -0.0585795979734085 0.07122503069752985 0.02523602554857138 0.2070992825550138 0.09815577842703374 0.06774911984194325 0.1980159438038343 -0.1780177545968449 0.005609389186656905 -0.04785235377533111 0.03956685074992824 -0.01269408385480829 0.1097392614202013 0.05325415277145003 0.04999707185912093 -0.1265567312810895 0.04807083340872494 0.1210461087514891 -0.04007093928033029 0.08736639801601198 0.115048497052869 0.01611192643302742 -0.03936397494808758 -0.02642191962786819 0.05425760166496157 0.1090283291794733 0.06984852191836065 -0.01026054566993155 -0.1469532418487225 -0.06110374444903863 -0.004764255541924724 0.07682690152384911 0.01689429490490442 0.00838142799995447 0.07198924564254409 -0.1843669363668157 0.03352784470972648 0.003685114346115884 0.08955434883408038 -0.2514931962758233 0.02998651044590085 -0.03219537295020121 -0.1235093301625388 -0.03029993652064131 0.09342862208902547 0.04239910084371892 0.05200395365085392 -0.02509736518192832 0.02589772955694655 0.04710247116861907 -0.0577415653526897 0.2139831462785643 0.1303922642498807 0.1676868691537411 -0.001716170396079975 -0.09630457648866136 0.004921801419280814 0.1941004402420629 0.03563796632233818 0.1430704462541165 0.03006545869004737 0.2602925336261989 0.03030346052937268
