-0.1488870826478674 2.021781364130673 0.9003946725499232 0.7094958755594321 -2.283887232946101 1.647467892793879 2.078115421614029 -0.3160656492973446 -0.04365395972044477 1.004265986411299 -2.673293067215802 1.106466966978088 0.3750203259339082 0.09133445306920954 1.905491660208681 -0.994106878389139 0.3318984409388911 1.182813315440594 1.131200269342497 0.2975901007636844 0.1560778594242623 0.5349345609495847 0.6247818129110646 0.6869722371867465 -0.1305413261149578 -1.697477157907757 1.292717433509443 1.371789536614384 -0.5565479349840204 2.158105784630136 -0.08312264548589521 -0.1791922674451686 -0.1478505598407565 -0.5310224554952395 -0.4142320609777077 -0.1051323018943517 1.494247162885785 0.145158202631972 -2.402638605308712 2.723229622885018 -0.3353556063642149 -0.1341128040001481 1.887791161500279 0.8734079551772171 0.1682553537413828 0.1400593997675942 1.018682841992507 -0.1817623395735064 0.07327888518097904 -0.1447798593534542 0.6282423080231887 0.6463859821368353 -0.02915482845599869 1.502080324743339 -1.082831514011537 -0.01507708205824546 -0.4028678480428548 -0.3472624681341452 0.6859954149874092 0.7319312466100083 0.531237797154444 1.299145104996906 0.9309768152231331 1.234519238164875 -0.150021330586 -0.7867345959339186 -2.414539110788954 0.6709488628022205 0.3069682926140666 0.6998568051484627 -0.554715059802403 0.7408531629613074 0.1427413139893432 0.4110285457756602 -0.3335207204784302 0.1828207267611194 -2.332597961310094 1.820384170095917 -1.885268833000061 0.05676601013351385 0.4934339547285033 0.381210825663735 -0.5699288880704307 -0.2028175190541538 -0.8617407464169105 0.3283576967441139 -0.1120755442342349 -0.04754893423162031 0.3200994007339753 -0.2552552863623748 -0.1426627179321724 -0.02967735123049751 -0.6591975696195284 0.3173530120111859 -0.2648255137789094 -0.3195242985778207 -0.0152250476291113 -0.3648288604936126 -0.4931278416397527 -0.1373175145278654 1.147279230389682
 -0.243002034295491 -1.810177471307465 0.5254082265609578 -0.3803202855077274 3.039109913652952 -0.3669617393533358 -1.525363774805173 0.2678027903133859 0.5635320461066123 -0.7720814068443506 1.425561386490845 -0.6773143625397161 -0.2758770437979445 -0.1815950201016211 -1.865628707699145 -0.5226322899282241 -0.303631016174649 -1.181135037059037 -0.1887575134194559 -0.889456869109261 -0.2553835129176337 -0.4872224828785401 -0.4384301053186999 -0.3369863795642837 0.8909598905171016 0.598221980222673 -0.6052549752307465 -1.415798361276632 0.4748956412902279 -1.966112181547985 -0.6654255906797673 -0.4035169852272525 0.1585014529890701 -0.1955222325300405 0.1458670707182308 -0.09195250352767124 -0.6253028695985687 0.3225642571334028 1.202638209540139 -0.5602395206176556 -0.8032141905826673 -0.3130428582110806 -1.589803693032245 0.1061388738057056 -0.3159940712695575 -0.3661950472983971 -0.3238145540215174 -0.0298521620826006 -0.5086093309706439 0.1420016885369058 -0.5164956124557282 -0.5928010169243167 -0.178442121163489 -0.7214556941135355 1.159534046834054 0.09725339222245589 0.3180524940297685 1.029423816545494 1.929909631762861 -1.64714216380628 -0.04741773676553478 -0.5299812134151631 -1.210821258355948 -1.365084151499191 -0.04349896260535281 0.4976332428809842 2.581866733855015 -0.5558864723417092 -0.5614084535157216 -0.3892308090974645 0.1910046577318706 -0.5758361522325961 -0.5808909294378731 -0.3636408042521174 0.4614984068053891 -0.1168759649377845 2.433823787467907 -0.5074297889655499 0.4236748854835423 -0.2915284321711697 -0.6780233150474105 -0.4447723436072715 0.2923192564244647 0.7840971846637128 -0.8565842885035535 0.06136773472754904 -0.02009804810824948 0.4178141309460039 -0.6911017474558077 0.09964376656290595 0.3404789222933944 -0.2744654838690249 -0.2119268297914378 -0.3906894094919285 0.2274433984210158 -0.1178210379262817 -0.1266742565018276 0.105768842470512 0.04391256581076065 -0.4702375695524287 -0.3128057201221864
 -0.189240010523443 -0.6102578726046898 -1.74828348045198 -0.3528290349769166 -0.8158906141919208 -1.904907147797912 -0.8840584052140139 -0.01959621049631924 -1.022198841546041 -0.3976829274034311 1.785593705323221 -0.8131802424474998 -0.2283888870636025 0.02844936236281081 -0.4611677169234638 1.551958840075124 -0.2864698027446804 -0.176308959829435 -1.348120384045978 0.6665488861992868 -0.0516549338817956 -0.1673220985800381 -0.5114889004732192 -0.4845633311762084 -0.8398865254047519 1.501078224105716 -1.219494203195959 -0.1276019042268645 -0.1045519737025061 -0.4661233692400344 0.858892733766545 0.6992520129247269 -0.09947895276076903 0.6728837982154451 0.3272951213425369 0.1135152886722699 -1.296695131311813 -0.7638775443281203 1.631388116766718 -2.551918496712721 1.269494126242464 0.4618910420517911 -0.7371308044389892 -1.229640197541504 -0.02636855892895114 0.06557766043929879 -1.105272157127636 0.06845098882275603 0.2969901408474733 -0.1534703072062733 -0.3761833332459125 -0.08669063873696714 0.06257986385316913 -1.220175110717654 0.09672710554830435 -0.6049270437881806 -0.004476581635898503 -0.7607653160815783 -2.716098606116968 0.6954972822591965 -0.7982279310728876 -1.11693529569479 0.1455143719145698 -0.2878597245196373 0.01029887803642435 0.4656800315753584 0.2898026283147495 -0.5330728852385661 0.1507012940636369 -0.729605726434338 0.6843297910206629 -0.3421350667019218 0.2954472272971842 -0.3521447249362496 -0.1561522243431726 -0.177139202052556 0.3265737706676698 -1.560501256138745 1.724518068956432 0.3213148267331384 0.03820547329254451 -0.09094263318009649 0.4629881739020397 -0.9591627828253428 2.239112589167444 -0.3128514090398167 -0.04226431128016435 -0.2461567199079894 0.03118051789899914 0.06944303945312011 -0.328994948789713 0.1272453768832098 0.8219362035521438 -0.1324538142742942 -0.2270927502777581 0.5339342013945599 -0.1044847021383179 0.3312391151394616 0.4724009799145483 0.7854328800239387 -1.07916819771251


