4.04792312e-001 -4.38200144e-001 -1.60686179e-001 -2.58364269e-001 3.20569897e-001 1.02594049e-001 1.11156987e-001 4.58484938e-001 4.43927593e-001 -2.39293363e-001 -7.48610170e-001 6.30413720e-001 -6.98337893e-001 8.02973462e-002 1.04863617e-001 1.21762693e+000 -3.21432744e-002 4.77849317e-001 2.95325135e-001 5.33775214e-001 7.66400482e-002 4.65269767e-001 4.95826966e-001 9.57147881e-002 -1.27493590e-002 -7.32253203e-001 -3.12802081e-001 -2.58287958e-001 -6.04521196e-002 1.70257616e-001 -2.02110686e-001 -8.37416144e-001 -5.05960463e-001 -2.34683995e-001 2.99968243e-002 -2.50706756e-001 6.97962912e-001 -6.21005810e-001 5.02829626e-001 5.63813988e-002 -1.25932619e-001 -7.93110340e-001 -5.12471024e-001 1.67826579e-001 -4.63871950e-001 -3.24837727e-001 -5.05360027e-001 -5.58121670e-001 -3.65549272e-001 3.53200399e-001 1.10710941e-001 7.03084739e-001 -1.87816198e+000 8.63282083e-001 2.09072029e-001 -9.14056760e-002 -1.69277269e-001 7.18864733e-001 2.83427265e-001 -4.41040523e-001 -6.76386733e-001 4.61177017e-001 2.12667664e-001 -1.75104976e-001 3.18544341e-001 -3.69531111e-001 -3.86848099e-002 -7.70591070e-001 5.55896391e-001 -1.00983191e+000 1.68754618e-001 -5.63449719e-001 5.30691419e-001 -2.21141603e-001 -4.91950776e-001 -5.77009418e-001 -2.73228171e-001 2.78881473e-001
